network unknown {
}
variable contact {
    type discrete [ 2 ] { cellular, telephone };
    property weight = None ;
}
variable day_of_week {
    type discrete [ 5 ] { fri, mon, thu, tue, wed };
    property weight = None ;
}
variable default {
    type discrete [ 3 ] { no, unknown, yes };
    property weight = None ;
}
variable education {
    type discrete [ 8 ] { basic.4y, basic.6y, basic.9y, high.school, illiterate, professional.course, university.degree, unknown };
    property weight = None ;
}
variable housing {
    type discrete [ 3 ] { no, unknown, yes };
    property weight = None ;
}
variable job {
    type discrete [ 12 ] { admin., blue-collar, entrepreneur, housemaid, management, retired, self-employed, services, student, technician, unemployed, unknown };
    property weight = None ;
}
variable loan {
    type discrete [ 3 ] { no, unknown, yes };
    property weight = None ;
}
variable marital {
    type discrete [ 4 ] { divorced, married, single, unknown };
    property weight = None ;
}
variable month {
    type discrete [ 10 ] { apr, aug, dec, jul, jun, mar, may, nov, oct, sep };
    property weight = None ;
}
variable poutcome {
    type discrete [ 3 ] { failure, nonexistent, success };
    property weight = None ;
}
probability ( contact | housing ) {
    ( no ) 0.5934345242356984, 0.4065654757643015;
    ( unknown ) 0.566621803499327, 0.4333781965006729;
    ( yes ) 0.6735207786188784, 0.32647922138112156;

}
probability ( day_of_week | month ) {
    ( apr ) 0.23176050452093305, 0.26671225590760583, 0.29178633842413193, 0.09575260238583695, 0.1139882987614923;
    ( aug ) 0.17319607652714383, 0.19779871159884757, 0.21803114175649865, 0.20977631025217702, 0.20119775986533295;
    ( dec ) 0.1319429198682766, 0.2911086717892426, 0.2472008781558727, 0.13743139407244787, 0.19231613611416026;
    ( jul ) 0.14106659976025201, 0.21131833514538206, 0.23306291990744613, 0.21145772350924144, 0.20309442167767836;
    ( jun ) 0.21568199766838403, 0.23523748636756797, 0.18183595953518109, 0.18240006017073446, 0.18484449625813246;
    ( mar ) 0.17217136580007328, 0.2618820944708898, 0.1813255217868913, 0.256389600878799, 0.1282314170633468;
    ( may ) 0.2075676146762339, 0.19188042878308106, 0.184254713418354, 0.20400894750602794, 0.21228829561630305;
    ( nov ) 0.1841022139861504, 0.18678435579830294, 0.22018921291329366, 0.1984882473422413, 0.2104359699600117;
    ( oct ) 0.1977722082985241, 0.17967140072403232, 0.22701197438039544, 0.2075187969924812, 0.18802561960456698;
    ( sep ) 0.20175377060680463, 0.15790950543668889, 0.21403016485443704, 0.20701508242721853, 0.2192914766748509;

}
probability ( default | contact, education, month ) {
    ( cellular, basic.4y, apr ) 0.7782033835660165, 0.2217798162055004, 1.680022848310737e-05;
    ( cellular, basic.4y, aug ) 0.5363772597732214, 0.4636140779432274, 8.662283551189765e-06;
    ( cellular, basic.4y, dec ) 0.8456612231828371, 0.15401857188600707, 0.00032020493115593983;
    ( cellular, basic.4y, jul ) 0.5102976037188909, 0.48969579313669165, 6.603144417371552e-06;
    ( cellular, basic.4y, jun ) 0.9182181416305363, 0.08169684604267617, 8.501232678738416e-05;
    ( cellular, basic.4y, mar ) 0.8911527664583898, 0.10875667843883, 9.055510278004163e-05;
    ( cellular, basic.4y, may ) 0.707901253348884, 0.2920902952088774, 8.451442238618021e-06;
    ( cellular, basic.4y, nov ) 0.8110889927935435, 0.18889557582210703, 1.5431384349489994e-05;
    ( cellular, basic.4y, oct ) 0.8874134249856794, 0.11253449981773682, 5.207519658386711e-05;
    ( cellular, basic.4y, sep ) 0.9997863932500265, 0.00010680337498664955, 0.00010680337498664955;
    ( cellular, basic.6y, apr ) 0.7560546014971379, 0.24391152660637472, 3.387189648748434e-05;
    ( cellular, basic.6y, aug ) 0.6962626917260748, 0.3037064469339259, 3.0861339999382775e-05;
    ( cellular, basic.6y, dec ) 0.3333333333333333, 0.3333333333333333, 0.3333333333333333;
    ( cellular, basic.6y, jul ) 0.5434711230370345, 0.4565175548837789, 1.1322079186621832e-05;
    ( cellular, basic.6y, jun ) 0.999621427219383, 0.0001892863903085368, 0.0001892863903085368;
    ( cellular, basic.6y, mar ) 0.9990753582986593, 0.00046232085067036526, 0.00046232085067036526;
    ( cellular, basic.6y, may ) 0.6538365233416464, 0.34615346093366584, 1.0015724687759783e-05;
    ( cellular, basic.6y, nov ) 0.8168588445852771, 0.18311181527447704, 2.9340140245870378e-05;
    ( cellular, basic.6y, oct ) 0.9995373583159843, 0.0002313208420078649, 0.0002313208420078649;
    ( cellular, basic.6y, sep ) 0.9994052928932501, 0.00029735355337496286, 0.00029735355337496286;
    ( cellular, basic.9y, apr ) 0.7893098322858514, 0.21067846400524326, 1.1703708905352106e-05;
    ( cellular, basic.9y, aug ) 0.7033767640031543, 0.2966114661676259, 1.176982921977802e-05;
    ( cellular, basic.9y, dec ) 0.9994449070219262, 0.0002775464890369137, 0.0002775464890369137;
    ( cellular, basic.9y, jul ) 0.7085379999413742, 0.291457812506543, 4.187552082679027e-06;
    ( cellular, basic.9y, jun ) 0.9816708323865787, 0.018253427251382258, 7.574036203893054e-05;
    ( cellular, basic.9y, mar ) 0.9022655694402112, 0.0976328355176267, 0.00010159504216194247;
    ( cellular, basic.9y, may ) 0.8012651096667839, 0.19873110937186889, 3.780961347232147e-06;
    ( cellular, basic.9y, nov ) 0.8480876910770637, 0.15190351871873983, 8.790204196443483e-06;
    ( cellular, basic.9y, oct ) 0.9997748508386805, 0.00011257458065968701, 0.00011257458065968701;
    ( cellular, basic.9y, sep ) 0.9996378779648741, 0.0001810610175629187, 0.0001810610175629187;
    ( cellular, high.school, apr ) 0.8914063469130127, 0.10858635610720722, 7.296979780069029e-06;
    ( cellular, high.school, aug ) 0.8006368260518124, 0.19935870812734732, 4.465820840199532e-06;
    ( cellular, high.school, dec ) 0.9685018872836131, 0.031367955225823245, 0.0001301574905635819;
    ( cellular, high.school, jul ) 0.825312563455458, 0.17468479943460366, 2.6371099384762256e-06;
    ( cellular, high.school, jun ) 0.9766974299348401, 0.023278347019354214, 2.422304580577962e-05;
    ( cellular, high.school, mar ) 0.9374056137061918, 0.0625423110972244, 5.207519658386711e-05;
    ( cellular, high.school, may ) 0.8612522257944007, 0.13874504735181598, 2.726853783373282e-06;
    ( cellular, high.school, nov ) 0.8928485296305988, 0.10591483094985193, 0.001236639419549165;
    ( cellular, high.school, oct ) 0.9921842198753351, 0.007783483512579531, 3.229661208539224e-05;
    ( cellular, high.school, sep ) 0.9999084374856935, 4.578125715332144e-05, 4.578125715332144e-05;
    ( cellular, illiterate, apr ) 0.9958592132505174, 0.0020703933747412, 0.0020703933747412;
    ( cellular, illiterate, aug ) 0.7487019730010385, 0.2502596053997923, 0.0010384215991692627;
    ( cellular, illiterate, dec ) 0.3333333333333333, 0.3333333333333333, 0.3333333333333333;
    ( cellular, illiterate, jul ) 0.39983374896093105, 0.5993349958437241, 0.0008312551953449708;
    ( cellular, illiterate, jun ) 0.3333333333333333, 0.3333333333333333, 0.3333333333333333;
    ( cellular, illiterate, mar ) 0.3333333333333333, 0.3333333333333333, 0.3333333333333333;
    ( cellular, illiterate, may ) 0.00411522633744856, 0.9917695473251029, 0.00411522633744856;
    ( cellular, illiterate, nov ) 0.9972337482710926, 0.001383125864453665, 0.001383125864453665;
    ( cellular, illiterate, oct ) 0.3333333333333333, 0.3333333333333333, 0.3333333333333333;
    ( cellular, illiterate, sep ) 0.3333333333333333, 0.3333333333333333, 0.3333333333333333;
    ( cellular, professional.course, apr ) 0.8829201677744799, 0.11706589746805458, 1.3934757465546313e-05;
    ( cellular, professional.course, aug ) 0.8184251244093171, 0.17974627722463626, 0.001828598366046616;
    ( cellular, professional.course, dec ) 0.9994795732500651, 0.00026021337496747333, 0.00026021337496747333;
    ( cellular, professional.course, jul ) 0.8632998207466291, 0.13669418415735923, 5.995096011462622e-06;
    ( cellular, professional.course, jun ) 0.9513813048578248, 0.048578246976499616, 4.044816567568661e-05;
    ( cellular, professional.course, mar ) 0.9853891203284431, 0.014550504135724207, 6.0375535832880525e-05;
    ( cellular, professional.course, may ) 0.9153853203894445, 0.08460762956226249, 7.0500482928308035e-06;
    ( cellular, professional.course, nov ) 0.910071909578502, 0.08991895324506821, 9.137176429739681e-06;
    ( cellular, professional.course, oct ) 0.9870747209314747, 0.01287186882444053, 5.3410244084815475e-05;
    ( cellular, professional.course, sep ) 0.9865577959229018, 0.013386657779259015, 5.5546297839249025e-05;
    ( cellular, university.degree, apr ) 0.9310241777440618, 0.068970075228588, 5.747027350103158e-06;
    ( cellular, university.degree, aug ) 0.8537815923573704, 0.14621687691245602, 1.5307301736001092e-06;
    ( cellular, university.degree, dec ) 0.9998634159666734, 6.829201666325205e-05, 6.829201666325205e-05;
    ( cellular, university.degree, jul ) 0.8554253656559601, 0.14457185843999745, 2.7759040425490574e-06;
    ( cellular, university.degree, jun ) 0.9816541779828322, 0.018334914869714124, 1.0907147453726427e-05;
    ( cellular, university.degree, mar ) 0.995243991116876, 0.004736355953854922, 1.965292926910756e-05;
    ( cellular, university.degree, may ) 0.9359427280885233, 0.0640539359427281, 3.3359687486447632e-06;
    ( cellular, university.degree, nov ) 0.9271001966837992, 0.07289685453360581, 2.948782595105611e-06;
    ( cellular, university.degree, oct ) 0.9693471929936441, 0.03063154985863997, 2.125714771591948e-05;
    ( cellular, university.degree, sep ) 0.9744489084454648, 0.025529834406819295, 2.125714771591948e-05;
    ( cellular, unknown, apr ) 0.8181317357022346, 0.1818338325930517, 3.4431704713700375e-05;
    ( cellular, unknown, aug ) 0.7119308018024139, 0.28804655480832375, 2.264338926250481e-05;
    ( cellular, unknown, dec ) 0.83281304197017, 0.1668400971210545, 0.000346860908775581;
    ( cellular, unknown, jul ) 0.5981205300935841, 0.4018664901418688, 1.2979764547071117e-05;
    ( cellular, unknown, jun ) 0.9997748508386805, 0.00011257458065968701, 0.00011257458065968701;
    ( cellular, unknown, mar ) 0.9997127674852794, 0.0001436162573603332, 0.0001436162573603332;
    ( cellular, unknown, may ) 0.7825680041059083, 0.2174018053920237, 3.0190502068049394e-05;
    ( cellular, unknown, nov ) 0.8584286444208624, 0.14153205203788863, 3.930354124906655e-05;
    ( cellular, unknown, oct ) 0.9996668332500417, 0.0001665833749791771, 0.0001665833749791771;
    ( cellular, unknown, sep ) 0.8862065701031903, 0.11369875982202023, 9.467007478935906e-05;
    ( telephone, basic.4y, apr ) 0.9995616918693842, 0.00021915406530791147, 0.00021915406530791147;
    ( telephone, basic.4y, aug ) 0.7095257288727663, 0.2903399167002553, 0.00013435442697836894;
    ( telephone, basic.4y, dec ) 0.8562091503267975, 0.14319667260843733, 0.0005941770647653001;
    ( telephone, basic.4y, jul ) 0.5309515909007115, 0.46901154002138407, 3.6869077904361614e-05;
    ( telephone, basic.4y, jun ) 0.5025959865109796, 0.497396792386069, 7.221102951264775e-06;
    ( telephone, basic.4y, mar ) 0.9979231568016615, 0.001038421599169263, 0.001038421599169263;
    ( telephone, basic.4y, may ) 0.47270785362426543, 0.5272880853465886, 4.061029146006181e-06;
    ( telephone, basic.4y, nov ) 0.7823646568893717, 0.21745428209306536, 0.0001810610175629187;
    ( telephone, basic.4y, oct ) 0.9225104066602626, 0.0771693884085815, 0.00032020493115593983;
    ( telephone, basic.4y, sep ) 0.9993595901376882, 0.00032020493115593983, 0.00032020493115593983;
    ( telephone, basic.6y, apr ) 0.7988362427265171, 0.20033250207813802, 0.000831255195344971;
    ( telephone, basic.6y, aug ) 0.665973665973666, 0.3333333333333334, 0.0006930006930006931;
    ( telephone, basic.6y, dec ) 0.3333333333333333, 0.3333333333333333, 0.3333333333333333;
    ( telephone, basic.6y, jul ) 0.6196678988441002, 0.3802734260400164, 5.867511588335387e-05;
    ( telephone, basic.6y, jun ) 0.5428488287501819, 0.4571379442614711, 1.3226988347023267e-05;
    ( telephone, basic.6y, mar ) 0.9958592132505174, 0.0020703933747412, 0.0020703933747412;
    ( telephone, basic.6y, may ) 0.5732640915708889, 0.426729198956006, 6.709473105077058e-06;
    ( telephone, basic.6y, nov ) 0.841770764847688, 0.15801008108700418, 0.00021915406530791147;
    ( telephone, basic.6y, oct ) 0.9979231568016615, 0.001038421599169263, 0.001038421599169263;
    ( telephone, basic.6y, sep ) 0.9958592132505174, 0.0020703933747412, 0.0020703933747412;
    ( telephone, basic.9y, apr ) 0.7081381225056395, 0.29168835675863264, 0.00017352073572791948;
    ( telephone, basic.9y, aug ) 0.8329863520703216, 0.16678232708767063, 0.0002313208420078649;
    ( telephone, basic.9y, dec ) 0.9917695473251029, 0.00411522633744856, 0.00411522633744856;
    ( telephone, basic.9y, jul ) 0.6940911207509252, 0.30588437124721224, 2.4508001862608144e-05;
    ( telephone, basic.9y, jun ) 0.6568450142176554, 0.34314965082718474, 5.334955159701881e-06;
    ( telephone, basic.9y, mar ) 0.9917695473251029, 0.00411522633744856, 0.00411522633744856;
    ( telephone, basic.9y, may ) 0.6573080615639015, 0.3426892187019797, 2.7197341187925466e-06;
    ( telephone, basic.9y, nov ) 0.8822184105202973, 0.11769991015274031, 8.167932696234582e-05;
    ( telephone, basic.9y, oct ) 0.9993595901376882, 0.00032020493115593983, 0.00032020493115593983;
    ( telephone, basic.9y, sep ) 0.9958592132505174, 0.0020703933747412, 0.0020703933747412;
    ( telephone, high.school, apr ) 0.936009926438004, 0.06390144465124523, 8.862891075068685e-05;
    ( telephone, high.school, aug ) 0.8459895332692512, 0.153903663355762, 0.00010680337498664955;
    ( telephone, high.school, dec ) 0.998959958398336, 0.0005200208008320333, 0.0005200208008320333;
    ( telephone, high.school, jul ) 0.8392631281341607, 0.16072199157775696, 1.4880288082377275e-05;
    ( telephone, high.school, jun ) 0.7666616512926162, 0.23333449072734497, 3.857980038811279e-06;
    ( telephone, high.school, mar ) 0.9991677070328756, 0.0004161464835622139, 0.0004161464835622139;
    ( telephone, high.school, may ) 0.764466336606673, 0.23553156644292209, 2.096950405025971e-06;
    ( telephone, high.school, nov ) 0.9633185998069401, 0.03663059492963472, 5.0805263425290864e-05;
    ( telephone, high.school, oct ) 0.9997807738682449, 0.00010961306587745256, 0.00010961306587745256;
    ( telephone, high.school, sep ) 0.9994795732500651, 0.00026021337496747333, 0.00026021337496747333;
    ( telephone, illiterate, apr ) 0.3333333333333333, 0.3333333333333333, 0.3333333333333333;
    ( telephone, illiterate, aug ) 0.9917695473251029, 0.00411522633744856, 0.00411522633744856;
    ( telephone, illiterate, dec ) 0.3333333333333333, 0.3333333333333333, 0.3333333333333333;
    ( telephone, illiterate, jul ) 0.3333333333333333, 0.3333333333333333, 0.3333333333333333;
    ( telephone, illiterate, jun ) 0.3333333333333333, 0.3333333333333333, 0.3333333333333333;
    ( telephone, illiterate, mar ) 0.3333333333333333, 0.3333333333333333, 0.3333333333333333;
    ( telephone, illiterate, may ) 0.0020703933747412, 0.9958592132505174, 0.0020703933747412;
    ( telephone, illiterate, nov ) 0.3333333333333333, 0.3333333333333333, 0.3333333333333333;
    ( telephone, illiterate, oct ) 0.3333333333333333, 0.3333333333333333, 0.3333333333333333;
    ( telephone, illiterate, sep ) 0.3333333333333333, 0.3333333333333333, 0.3333333333333333;
    ( telephone, professional.course, apr ) 0.856675587273268, 0.14302705917335715, 0.00029735355337496286;
    ( telephone, professional.course, aug ) 0.8978151832015641, 0.10209980447164836, 8.501232678738416e-05;
    ( telephone, professional.course, dec ) 0.9986139986139987, 0.0006930006930006931, 0.0006930006930006931;
    ( telephone, professional.course, jul ) 0.8317174784877157, 0.1682435852509442, 3.893626134018612e-05;
    ( telephone, professional.course, jun ) 0.7504627332372423, 0.2495293904523365, 7.876310421146318e-06;
    ( telephone, professional.course, mar ) 0.9994449070219262, 0.0002775464890369137, 0.0002775464890369137;
    ( telephone, professional.course, may ) 0.7723345877492763, 0.2276609796855538, 4.432565169789408e-06;
    ( telephone, professional.course, nov ) 0.8938332386542953, 0.1061036419869974, 6.311935870731554e-05;
    ( telephone, professional.course, oct ) 0.9996378779648741, 0.0001810610175629187, 0.0001810610175629187;
    ( telephone, professional.course, sep ) 0.9370283632578715, 0.06271142336716107, 0.00026021337496747333;
    ( telephone, university.degree, apr ) 0.8998988275903113, 0.10004165922751888, 5.951318216985062e-05;
    ( telephone, university.degree, aug ) 0.9385301319299785, 0.06143332236962322, 3.6545700398348135e-05;
    ( telephone, university.degree, dec ) 0.9990753582986593, 0.00046232085067036526, 0.00046232085067036526;
    ( telephone, university.degree, jul ) 0.8626527588281032, 0.13733257045611258, 1.4670715784223112e-05;
    ( telephone, university.degree, jun ) 0.8126192474209156, 0.1873765776146758, 4.174964408428418e-06;
    ( telephone, university.degree, mar ) 0.9996529585285442, 0.00017352073572791948, 0.00017352073572791948;
    ( telephone, university.degree, may ) 0.8079966095480271, 0.1920010095165987, 2.3809353742711362e-06;
    ( telephone, university.degree, nov ) 0.9592568369546787, 0.04071893999951554, 2.422304580577962e-05;
    ( telephone, university.degree, oct ) 0.9998563527975292, 7.182360123536593e-05, 7.182360123536593e-05;
    ( telephone, university.degree, sep ) 0.9997396850188727, 0.00013015749056358188, 0.00013015749056358188;
    ( telephone, unknown, apr ) 0.998959958398336, 0.0005200208008320333, 0.0005200208008320333;
    ( telephone, unknown, aug ) 0.9084373817631479, 0.0911842603102535, 0.00037835792659856227;
    ( telephone, unknown, dec ) 0.9958592132505174, 0.0020703933747412, 0.0020703933747412;
    ( telephone, unknown, jul ) 0.6980271948439832, 0.30189420734103584, 7.859781498074351e-05;
    ( telephone, unknown, jun ) 0.5366855876000994, 0.4632953003459282, 1.9112053972440418e-05;
    ( telephone, unknown, mar ) 0.9979231568016615, 0.001038421599169263, 0.001038421599169263;
    ( telephone, unknown, may ) 0.5572447865313869, 0.442744611600564, 1.060186804915026e-05;
    ( telephone, unknown, nov ) 0.9993062781824489, 0.000346860908775581, 0.000346860908775581;
    ( telephone, unknown, oct ) 0.9986139986139987, 0.0006930006930006931, 0.0006930006930006931;
    ( telephone, unknown, sep ) 0.9988116458704694, 0.0005941770647653001, 0.0005941770647653001;

}
probability ( education | job ) {
    ( admin. ) 0.007390098028241089, 0.014490349095677485, 0.047880718980378364, 0.3194173476404459, 9.794828330641421e-05, 0.034831608910495256, 0.5519985447683623, 0.023893384293093248;
    ( blue-collar ) 0.25048401620891486, 0.15409500225123812, 0.39150157586672657, 0.094878433138226, 0.0008667266996848264, 0.048953174245835195, 0.010159837910850964, 0.04906123367852317;
    ( entrepreneur ) 0.09409694403113197, 0.04877246194345885, 0.14422856815840676, 0.16071019800846972, 0.00138777612452787, 0.09272347487696006, 0.41892239899278927, 0.03915817786425547;
    ( housemaid ) 0.44711916365351356, 0.07264974060682282, 0.08868495519572393, 0.1641447885552586, 0.0009628989152648953, 0.05567127810092753, 0.1311311114604622, 0.039636063512026413;
    ( management ) 0.034204901681390704, 0.029075235109717865, 0.05677543459675121, 0.1019165004274722, 7.1245369051011676e-06, 0.03044314619549729, 0.7055072670276432, 0.04207039042462239;
    ( retired ) 0.3470715046991571, 0.04361253754481155, 0.08430626877240578, 0.1604616800697607, 0.0017561282821432034, 0.14011481445596358, 0.16569373122759423, 0.05698333494816394;
    ( self-employed ) 0.06545385246862906, 0.01760584027207693, 0.154817051718072, 0.0830450334232438, 0.0021256010320159493, 0.11822739533247333, 0.5383047965286736, 0.020420429224815292;
    ( services ) 0.03326159983203863, 0.05694415284484568, 0.09775876548393866, 0.6757138358177618, 5.248792777661136e-06, 0.0549286164182238, 0.04359122401847575, 0.03779655679193785;
    ( student ) 0.02973243191772995, 0.01487811845362788, 0.11314511521614928, 0.4079461055037135, 2.3804989525804606e-05, 0.04915730337078651, 0.19427251952009142, 0.19084460102837555;
    ( technician ) 0.008604389629007144, 0.01290503966978917, 0.05694962801848785, 0.12946748560270893, 3.089547443090536e-06, 0.492353370078351, 0.26827467312588055, 0.03144232432833239;
    ( unemployed ) 0.11045603944124897, 0.033545603944124903, 0.18342235004108465, 0.2554026294165982, 2.0542317173377156e-05, 0.1400369761709121, 0.2583607230895645, 0.018755135579293345;
    ( unknown ) 0.15755931347804136, 0.06669611307420492, 0.09395507319535586, 0.11212771327612316, 6.30994447248864e-05, 0.03640837960625946, 0.13635790005047954, 0.39683240787481067;

}
probability ( housing ) {
    table 0.45211620943594727, 0.02405114509994335, 0.5238326454641095 ;
}
probability ( job | month ) {
    ( apr ) 0.24466859154572848, 0.21465567459412904, 0.041416559025403324, 0.017862117873515177, 0.07408884836511916, 0.060791986424537134, 0.03685763493148949, 0.10676113770483496, 0.0395170073196059, 0.13981333738571025, 0.020141579920472098, 0.0034255249094547013;
    ( aug ) 0.33003409838895903, 0.09420489247137785, 0.011980296310683803, 0.03366946143968578, 0.057786518187605884, 0.05535862656868775, 0.03431689920473061, 0.04532334121049281, 0.01877839284365457, 0.28924551919113445, 0.019587690049960613, 0.00971426413302688;
    ( dec ) 0.27451518477863157, 0.06595316502012441, 0.005579948774240761, 0.05497621661178193, 0.06595316502012441, 0.18121112330772046, 0.03302231979509696, 0.011068422978412002, 0.10986095865349434, 0.1318148554701793, 0.05497621661178193, 0.011068422978412002;
    ( jul ) 0.25299220354418156, 0.24936810608383753, 0.038055346473009774, 0.03331614210179069, 0.05561828031929229, 0.037776569745291005, 0.03066776318846237, 0.11011913058831185, 0.014638101344633087, 0.14719643537490829, 0.023001403176196193, 0.0072505180600856796;
    ( jun ) 0.23278866283078234, 0.2604295939728981, 0.04080641319744776, 0.025575696037506427, 0.06619094179734998, 0.03253293720933148, 0.03836197711004977, 0.10191731538239755, 0.018994521956050295, 0.13877189023855188, 0.0319688365737781, 0.011661213693856318;
    ( mar ) 0.30944098620773836, 0.09157207372146955, 0.0036921762480166, 0.011015501037471013, 0.07692542414256073, 0.11720371048456, 0.045801293787379474, 0.045801293787379474, 0.07509459294519713, 0.18677529598437692, 0.03298547540583425, 0.0036921762480166;
    ( may ) 0.21925868363206777, 0.3049571991594768, 0.03515212696937126, 0.021498465173478976, 0.06601811773136179, 0.02389511857382177, 0.03035882016868567, 0.12099589421801317, 0.016850410094026286, 0.13312441294096006, 0.01917443763375263, 0.008716313704984073;
    ( nov ) 0.2645607789590038, 0.14679037029812408, 0.06559462271205174, 0.021217367274618808, 0.13679329627101008, 0.03316508989238922, 0.04828261646997626, 0.0782738385513183, 0.013170941838161187, 0.15288614714392532, 0.0375540492213661, 0.0017108813680548778;
    ( oct ) 0.27432005940777876, 0.07103406664810175, 0.020908753364893718, 0.026478232618583498, 0.07103406664810175, 0.17546180265478512, 0.029262972245428388, 0.04597141000649773, 0.07381880627494664, 0.16153810452056067, 0.039009560939385506, 0.011162164670936604;
    ( sep ) 0.291155150239682, 0.03335087103940138, 0.021074476791768975, 0.021074476791768975, 0.0807026774231264, 0.15085350169531161, 0.03510464164620601, 0.05088857710744769, 0.08596398924354029, 0.16137612533613938, 0.054396118321056945, 0.014059394364550453;

}
probability ( loan | housing ) {
    ( no ) 0.8626703419966111, 1.1932889429846541e-05, 0.1373177251139591;
    ( unknown ) 0.0002243158366980709, 0.999551368326604, 0.0002243158366980709;
    ( yes ) 0.8289149801740563, 1.0299191513466192e-05, 0.1710747206344302;

}
probability ( marital | default, job ) {
    ( no, admin. ) 0.12246763995301937, 0.48986599563055694, 0.3861312780316815, 0.0015350863847422456;
    ( no, blue-collar ) 0.08557968700095818, 0.6877423917506958, 0.22519733540174297, 0.0014805858466030938;
    ( no, entrepreneur ) 0.13507046318118415, 0.7004112356308018, 0.16190899908614304, 0.0026093021018710016;
    ( no, housemaid ) 0.14035909738361194, 0.730058475148062, 0.12551540595247018, 0.0040670215158557605;
    ( no, management ) 0.11354727522584425, 0.69544819662529, 0.1897823785172002, 0.0012221496316655027;
    ( no, retired ) 0.21251098924100975, 0.7317055302047138, 0.05275882279063925, 0.003024657763637125;
    ( no, self-employed ) 0.10185094864166218, 0.5926083987709115, 0.30113885772813737, 0.0044017948592888845;
    ( no, services ) 0.13724410881630425, 0.5447047584387226, 0.31608133927759074, 0.0019697934673824037;
    ( no, student ) 0.01169032351033936, 0.04411340874702788, 0.9428813315080337, 0.0013149362345990343;
    ( no, technician ) 0.11621984947625061, 0.524021643811855, 0.3581949677655607, 0.0015635389463337544;
    ( no, unemployed ) 0.13016321855537258, 0.572141885603837, 0.2912341613572911, 0.0064607344834991766;
    ( no, unknown ) 0.028159126365054608, 0.6908736349453979, 0.24157566302652106, 0.03939157566302653;
    ( unknown, admin. ) 0.1252953813104189, 0.6040064446831364, 0.270687432867884, 1.0741138560687432e-05;
    ( unknown, blue-collar ) 0.06538542525750585, 0.7896304550000879, 0.14340048079453935, 0.0015836389478671327;
    ( unknown, entrepreneur ) 0.07644399335670786, 0.8703174017346372, 0.05319247093559696, 4.6133973057759714e-05;
    ( unknown, housemaid ) 0.17869580358697543, 0.7397266237158279, 0.08153404144175518, 4.353125544140692e-05;
    ( unknown, management ) 0.11137052759248026, 0.8165251667677379, 0.07207398423286838, 3.0321406913280767e-05;
    ( unknown, retired ) 0.16795053003533564, 0.7709187279151942, 0.058551236749116595, 0.002579505300353356;
    ( unknown, self-employed ) 0.06032105574157968, 0.8119460311207406, 0.12768367145952333, 4.924167815639157e-05;
    ( unknown, services ) 0.12337012553823759, 0.6888380132209351, 0.1877766996179271, 1.5161622900115226e-05;
    ( unknown, student ) 0.00013347570742124935, 0.06740523224773093, 0.9323278163374267, 0.00013347570742124935;
    ( unknown, technician ) 0.1065655415789174, 0.6628863338835448, 0.2274602993909727, 0.003087825146564972;
    ( unknown, unemployed ) 0.09708225919850012, 0.797340051558472, 0.10551910007030701, 5.858917272088118e-05;
    ( unknown, unknown ) 0.05270369017172087, 0.7300876872488126, 0.20396419437340155, 0.013244428206065036;
    ( yes, admin. ) 0.25, 0.25, 0.25, 0.25;
    ( yes, blue-collar ) 0.25, 0.25, 0.25, 0.25;
    ( yes, entrepreneur ) 0.25, 0.25, 0.25, 0.25;
    ( yes, housemaid ) 0.25, 0.25, 0.25, 0.25;
    ( yes, management ) 0.25, 0.25, 0.25, 0.25;
    ( yes, retired ) 0.25, 0.25, 0.25, 0.25;
    ( yes, self-employed ) 0.25, 0.25, 0.25, 0.25;
    ( yes, services ) 0.25, 0.25, 0.25, 0.25;
    ( yes, student ) 0.25, 0.25, 0.25, 0.25;
    ( yes, technician ) 0.006756756756756757, 0.9797297297297298, 0.006756756756756757, 0.006756756756756757;
    ( yes, unemployed ) 0.013157894736842106, 0.9605263157894738, 0.013157894736842106, 0.013157894736842106;
    ( yes, unknown ) 0.25, 0.25, 0.25, 0.25;

}
probability ( month | contact, poutcome ) {
    ( cellular, failure ) 0.15611874841865564, 0.059213966433330524, 0.008610947119844817, 0.026828034072699673, 0.03922577380450367, 0.02227376233448596, 0.42026650923505104, 0.19862528464198365, 0.03821371341823396, 0.0306232605212111;
    ( cellular, nonexistent ) 0.08244937626459764, 0.2620660538180892, 0.003490687781796167, 0.28166233848997085, 0.025189988369684706, 0.015678620931381143, 0.1741217518759858, 0.13110551723039177, 0.013623400831647205, 0.010612264406455622;
    ( cellular, success ) 0.08110732091314615, 0.15116767252689584, 0.0330884282340593, 0.0763841511414327, 0.10865914458147469, 0.05512988716872212, 0.1684859616898452, 0.11653109420099712, 0.1, 0.10944633954342693;
    ( telephone, failure ) 0.09999999999999999, 0.06670366259711431, 0.016759156492785792, 0.0467258601553829, 0.053385127635960046, 0.03340732519422863, 0.3930077691453939, 0.17991120976692562, 0.05671476137624861, 0.053385127635960046;
    ( telephone, nonexistent ) 0.01017894545123395, 0.01612102722884983, 0.0017097714233676353, 0.07192195610600127, 0.30571213914944, 0.002665968491029961, 0.554391676532192, 0.024180402513432297, 0.008812949640287771, 0.004305163464165377;
    ( telephone, success ) 0.07774193548387097, 0.12612903225806452, 0.02935483870967742, 0.1067741935483871, 0.05838709677419355, 0.1067741935483871, 0.15516129032258066, 0.16483870967741937, 0.08741935483870968, 0.08741935483870968;

}
probability ( poutcome | contact ) {
    ( cellular ) 0.15116975839867408, 0.8002422387964557, 0.04858800280487028;
    ( telephone ) 0.0199623352165725, 0.9731693807466488, 0.006868284036778552;

}
