network unknown {
}
variable Black_King_file {
    type discrete [ 8 ] { a, b, c, d, e, f, g, h };
    property weight = None ;
}
variable Black_King_rank {
    type discrete [ 8 ] { 1, 2, 3, 4, 5, 6, 7, 8 };
    property weight = None ;
}
variable White_King_file {
    type discrete [ 4 ] { a, b, c, d };
    property weight = None ;
}
variable White_King_rank {
    type discrete [ 4 ] { 1, 2, 3, 4 };
    property weight = None ;
}
variable White_Rook_file {
    type discrete [ 8 ] { a, b, c, d, e, f, g, h };
    property weight = None ;
}
variable White_Rook_rank {
    type discrete [ 8 ] { 1, 2, 3, 4, 5, 6, 7, 8 };
    property weight = None ;
}
probability ( Black_King_file ) {
    table 0.10407905053817093, 0.09623814954736618, 0.08518960724214128, 0.09965963361608098, 0.12296849383420058, 0.1551161878965001, 0.16395502174068002, 0.17279385558485993 ;
}
probability ( Black_King_rank ) {
    table 0.13059555207071066, 0.113915817235726, 0.12496435954095089, 0.13501496899280063, 0.13622674460047046, 0.12859968636396038, 0.11976085251978046, 0.11092201867560054 ;
}
probability ( White_King_file | Black_King_file, Black_King_rank ) {
    ( a, 1 ) 2.066628089608994e-05, 2.066628089608994e-05, 0.417975531123419, 0.5819831363147888;
    ( a, 2 ) 2.5199072674125592e-05, 2.5199072674125592e-05, 0.39998488055639553, 0.5999647212982562;
    ( a, 3 ) 2.0999580008399833e-05, 0.16667366652666946, 0.3333263334733305, 0.4999790004199916;
    ( a, 4 ) 2.0999580008399833e-05, 0.16667366652666946, 0.3333263334733305, 0.4999790004199916;
    ( a, 5 ) 2.0999580008399833e-05, 0.16667366652666946, 0.3333263334733305, 0.4999790004199916;
    ( a, 6 ) 2.0999580008399833e-05, 0.16667366652666946, 0.3333263334733305, 0.4999790004199916;
    ( a, 7 ) 2.0999580008399833e-05, 0.16667366652666946, 0.3333263334733305, 0.4999790004199916;
    ( a, 8 ) 2.0999580008399833e-05, 0.16667366652666946, 0.3333263334733305, 0.4999790004199916;
    ( b, 1 ) 2.5199072674125592e-05, 2.5199072674125592e-05, 0.20000503981453482, 0.7999445620401169;
    ( b, 2 ) 3.550632012498225e-05, 3.550632012498225e-05, 3.550632012498225e-05, 0.999893481039625;
    ( b, 3 ) 2.5199072674125592e-05, 0.20000503981453482, 0.20000503981453482, 0.5999647212982562;
    ( b, 4 ) 2.0999580008399833e-05, 0.16667366652666946, 0.3333263334733305, 0.4999790004199916;
    ( b, 5 ) 2.0999580008399833e-05, 0.16667366652666946, 0.3333263334733305, 0.4999790004199916;
    ( b, 6 ) 2.0999580008399833e-05, 0.16667366652666946, 0.3333263334733305, 0.4999790004199916;
    ( b, 7 ) 2.0999580008399833e-05, 0.16667366652666946, 0.3333263334733305, 0.4999790004199916;
    ( b, 8 ) 2.0999580008399833e-05, 0.16667366652666946, 0.3333263334733305, 0.4999790004199916;
    ( c, 1 ) 0.25, 3.149804712107849e-05, 0.25, 0.4999685019528789;
    ( c, 2 ) 0.49993701184177375, 6.298815822625347e-05, 6.298815822625347e-05, 0.49993701184177375;
    ( c, 3 ) 0.15455901150404772, 0.2818136628319841, 0.2818136628319841, 0.2818136628319841;
    ( c, 4 ) 2.5199072674125592e-05, 0.20000503981453482, 0.39998488055639553, 0.39998488055639553;
    ( c, 5 ) 2.0999580008399833e-05, 0.16667366652666946, 0.3333263334733305, 0.4999790004199916;
    ( c, 6 ) 2.0999580008399833e-05, 0.16667366652666946, 0.3333263334733305, 0.4999790004199916;
    ( c, 7 ) 2.0999580008399833e-05, 0.16667366652666946, 0.3333263334733305, 0.4999790004199916;
    ( c, 8 ) 2.0999580008399833e-05, 0.16667366652666946, 0.3333263334733305, 0.4999790004199916;
    ( d, 1 ) 0.16667366652666946, 0.3333263334733305, 0.16667366652666946, 0.3333263334733305;
    ( d, 2 ) 0.25, 0.4999685019528789, 3.149804712107849e-05, 0.25;
    ( d, 3 ) 0.20000503981453482, 0.39998488055639553, 0.20000503981453482, 0.20000503981453482;
    ( d, 4 ) 0.08996032074067951, 0.25396792593204925, 0.3280358766636356, 0.3280358766636356;
    ( d, 5 ) 2.0999580008399833e-05, 0.16667366652666946, 0.3333263334733305, 0.4999790004199916;
    ( d, 6 ) 2.0999580008399833e-05, 0.16667366652666946, 0.3333263334733305, 0.4999790004199916;
    ( d, 7 ) 2.0999580008399833e-05, 0.16667366652666946, 0.3333263334733305, 0.4999790004199916;
    ( d, 8 ) 2.0999580008399833e-05, 0.16667366652666946, 0.3333263334733305, 0.4999790004199916;
    ( e, 1 ) 0.125007875007875, 0.25, 0.374992124992125, 0.25;
    ( e, 2 ) 0.14286485708114335, 0.28571171430628556, 0.42855857153142773, 0.14286485708114335;
    ( e, 3 ) 0.14286485708114335, 0.28571171430628556, 0.42855857153142773, 0.14286485708114335;
    ( e, 4 ) 0.125007875007875, 0.25, 0.374992124992125, 0.25;
    ( e, 5 ) 0.07174171006658317, 0.20253477486980026, 0.3333278396730173, 0.3923956753905993;
    ( e, 6 ) 2.0999580008399833e-05, 0.16667366652666946, 0.3333263334733305, 0.4999790004199916;
    ( e, 7 ) 2.0999580008399833e-05, 0.16667366652666946, 0.3333263334733305, 0.4999790004199916;
    ( e, 8 ) 2.0999580008399833e-05, 0.16667366652666946, 0.3333263334733305, 0.4999790004199916;
    ( f, 1 ) 0.1000075601028174, 0.20000252003427246, 0.2999974799657275, 0.3999924398971826;
    ( f, 2 ) 0.1000075601028174, 0.20000252003427246, 0.2999974799657275, 0.3999924398971826;
    ( f, 3 ) 0.1000075601028174, 0.20000252003427246, 0.2999974799657275, 0.3999924398971826;
    ( f, 4 ) 0.1000075601028174, 0.20000252003427246, 0.2999974799657275, 0.3999924398971826;
    ( f, 5 ) 0.1000075601028174, 0.20000252003427246, 0.2999974799657275, 0.3999924398971826;
    ( f, 6 ) 0.06694039490680938, 0.18898013163560312, 0.3110198683643969, 0.43305960509319064;
    ( f, 7 ) 2.0999580008399833e-05, 0.16667366652666946, 0.3333263334733305, 0.4999790004199916;
    ( f, 8 ) 2.0999580008399833e-05, 0.16667366652666946, 0.3333263334733305, 0.4999790004199916;
    ( g, 1 ) 0.1000075601028174, 0.20000252003427246, 0.2999974799657275, 0.3999924398971826;
    ( g, 2 ) 0.1000075601028174, 0.20000252003427246, 0.2999974799657275, 0.3999924398971826;
    ( g, 3 ) 0.1000075601028174, 0.20000252003427246, 0.2999974799657275, 0.3999924398971826;
    ( g, 4 ) 0.1000075601028174, 0.20000252003427246, 0.2999974799657275, 0.3999924398971826;
    ( g, 5 ) 0.1000075601028174, 0.20000252003427246, 0.2999974799657275, 0.3999924398971826;
    ( g, 6 ) 0.1000075601028174, 0.20000252003427246, 0.2999974799657275, 0.3999924398971826;
    ( g, 7 ) 0.06694039490680938, 0.18898013163560312, 0.3110198683643969, 0.43305960509319064;
    ( g, 8 ) 2.0999580008399833e-05, 0.16667366652666946, 0.3333263334733305, 0.4999790004199916;
    ( h, 1 ) 0.1000075601028174, 0.20000252003427246, 0.2999974799657275, 0.3999924398971826;
    ( h, 2 ) 0.1000075601028174, 0.20000252003427246, 0.2999974799657275, 0.3999924398971826;
    ( h, 3 ) 0.1000075601028174, 0.20000252003427246, 0.2999974799657275, 0.3999924398971826;
    ( h, 4 ) 0.1000075601028174, 0.20000252003427246, 0.2999974799657275, 0.3999924398971826;
    ( h, 5 ) 0.1000075601028174, 0.20000252003427246, 0.2999974799657275, 0.3999924398971826;
    ( h, 6 ) 0.1000075601028174, 0.20000252003427246, 0.2999974799657275, 0.3999924398971826;
    ( h, 7 ) 0.1000075601028174, 0.20000252003427246, 0.2999974799657275, 0.3999924398971826;
    ( h, 8 ) 0.06694039490680938, 0.18898013163560312, 0.3110198683643969, 0.43305960509319064;

}
probability ( White_King_rank | Black_King_file, Black_King_rank, White_King_file ) {
    ( a, 1, a ) 0.25, 0.25, 0.25, 0.25;
    ( a, 1, b ) 0.25, 0.25, 0.25, 0.25;
    ( a, 1, c ) 0.392398022249691, 0.392398022249691, 0.21519159456118664, 1.2360939431396786e-05;
    ( a, 1, d ) 0.28181705195128015, 0.28181705195128015, 0.28181705195128015, 0.15454884414615958;
    ( a, 2, a ) 0.25, 0.25, 0.25, 0.25;
    ( a, 2, b ) 0.25, 0.25, 0.25, 0.25;
    ( a, 2, c ) 0.49998424998425, 0.49998424998425, 1.575001575001575e-05, 1.575001575001575e-05;
    ( a, 2, d ) 0.33332983325633164, 0.33332983325633164, 0.33332983325633164, 1.0500231005082113e-05;
    ( a, 3, a ) 0.25, 0.25, 0.25, 0.25;
    ( a, 3, b ) 0.9999055058586368, 3.149804712107849e-05, 3.149804712107849e-05, 3.149804712107849e-05;
    ( a, 3, c ) 0.49998424998425, 0.49998424998425, 1.575001575001575e-05, 1.575001575001575e-05;
    ( a, 3, d ) 0.33332983325633164, 0.33332983325633164, 0.33332983325633164, 1.0500231005082113e-05;
    ( a, 4, a ) 0.25, 0.25, 0.25, 0.25;
    ( a, 4, b ) 0.9999055058586368, 3.149804712107849e-05, 3.149804712107849e-05, 3.149804712107849e-05;
    ( a, 4, c ) 0.49998424998425, 0.49998424998425, 1.575001575001575e-05, 1.575001575001575e-05;
    ( a, 4, d ) 0.33332983325633164, 0.33332983325633164, 0.33332983325633164, 1.0500231005082113e-05;
    ( a, 5, a ) 0.25, 0.25, 0.25, 0.25;
    ( a, 5, b ) 0.9999055058586368, 3.149804712107849e-05, 3.149804712107849e-05, 3.149804712107849e-05;
    ( a, 5, c ) 0.49998424998425, 0.49998424998425, 1.575001575001575e-05, 1.575001575001575e-05;
    ( a, 5, d ) 0.33332983325633164, 0.33332983325633164, 0.33332983325633164, 1.0500231005082113e-05;
    ( a, 6, a ) 0.25, 0.25, 0.25, 0.25;
    ( a, 6, b ) 0.9999055058586368, 3.149804712107849e-05, 3.149804712107849e-05, 3.149804712107849e-05;
    ( a, 6, c ) 0.49998424998425, 0.49998424998425, 1.575001575001575e-05, 1.575001575001575e-05;
    ( a, 6, d ) 0.33332983325633164, 0.33332983325633164, 0.33332983325633164, 1.0500231005082113e-05;
    ( a, 7, a ) 0.25, 0.25, 0.25, 0.25;
    ( a, 7, b ) 0.9999055058586368, 3.149804712107849e-05, 3.149804712107849e-05, 3.149804712107849e-05;
    ( a, 7, c ) 0.49998424998425, 0.49998424998425, 1.575001575001575e-05, 1.575001575001575e-05;
    ( a, 7, d ) 0.33332983325633164, 0.33332983325633164, 0.33332983325633164, 1.0500231005082113e-05;
    ( a, 8, a ) 0.25, 0.25, 0.25, 0.25;
    ( a, 8, b ) 0.9999055058586368, 3.149804712107849e-05, 3.149804712107849e-05, 3.149804712107849e-05;
    ( a, 8, c ) 0.49998424998425, 0.49998424998425, 1.575001575001575e-05, 1.575001575001575e-05;
    ( a, 8, d ) 0.33332983325633164, 0.33332983325633164, 0.33332983325633164, 1.0500231005082113e-05;
    ( b, 1, a ) 0.25, 0.25, 0.25, 0.25;
    ( b, 1, b ) 0.25, 0.25, 0.25, 0.25;
    ( b, 1, c ) 3.149804712107849e-05, 3.149804712107849e-05, 0.9999055058586368, 3.149804712107849e-05;
    ( b, 1, d ) 0.25, 0.25, 0.25, 0.25;
    ( b, 2, a ) 0.25, 0.25, 0.25, 0.25;
    ( b, 2, b ) 0.25, 0.25, 0.25, 0.25;
    ( b, 2, c ) 0.25, 0.25, 0.25, 0.25;
    ( b, 2, d ) 0.28181705195128015, 0.28181705195128015, 0.28181705195128015, 0.15454884414615958;
    ( b, 3, a ) 0.25, 0.25, 0.25, 0.25;
    ( b, 3, b ) 0.9999055058586368, 3.149804712107849e-05, 3.149804712107849e-05, 3.149804712107849e-05;
    ( b, 3, c ) 0.9999055058586368, 3.149804712107849e-05, 3.149804712107849e-05, 3.149804712107849e-05;
    ( b, 3, d ) 0.33332983325633164, 0.33332983325633164, 0.33332983325633164, 1.0500231005082113e-05;
    ( b, 4, a ) 0.25, 0.25, 0.25, 0.25;
    ( b, 4, b ) 0.9999055058586368, 3.149804712107849e-05, 3.149804712107849e-05, 3.149804712107849e-05;
    ( b, 4, c ) 0.49998424998425, 0.49998424998425, 1.575001575001575e-05, 1.575001575001575e-05;
    ( b, 4, d ) 0.33332983325633164, 0.33332983325633164, 0.33332983325633164, 1.0500231005082113e-05;
    ( b, 5, a ) 0.25, 0.25, 0.25, 0.25;
    ( b, 5, b ) 0.9999055058586368, 3.149804712107849e-05, 3.149804712107849e-05, 3.149804712107849e-05;
    ( b, 5, c ) 0.49998424998425, 0.49998424998425, 1.575001575001575e-05, 1.575001575001575e-05;
    ( b, 5, d ) 0.33332983325633164, 0.33332983325633164, 0.33332983325633164, 1.0500231005082113e-05;
    ( b, 6, a ) 0.25, 0.25, 0.25, 0.25;
    ( b, 6, b ) 0.9999055058586368, 3.149804712107849e-05, 3.149804712107849e-05, 3.149804712107849e-05;
    ( b, 6, c ) 0.49998424998425, 0.49998424998425, 1.575001575001575e-05, 1.575001575001575e-05;
    ( b, 6, d ) 0.33332983325633164, 0.33332983325633164, 0.33332983325633164, 1.0500231005082113e-05;
    ( b, 7, a ) 0.25, 0.25, 0.25, 0.25;
    ( b, 7, b ) 0.9999055058586368, 3.149804712107849e-05, 3.149804712107849e-05, 3.149804712107849e-05;
    ( b, 7, c ) 0.49998424998425, 0.49998424998425, 1.575001575001575e-05, 1.575001575001575e-05;
    ( b, 7, d ) 0.33332983325633164, 0.33332983325633164, 0.33332983325633164, 1.0500231005082113e-05;
    ( b, 8, a ) 0.25, 0.25, 0.25, 0.25;
    ( b, 8, b ) 0.9999055058586368, 3.149804712107849e-05, 3.149804712107849e-05, 3.149804712107849e-05;
    ( b, 8, c ) 0.49998424998425, 0.49998424998425, 1.575001575001575e-05, 1.575001575001575e-05;
    ( b, 8, d ) 0.33332983325633164, 0.33332983325633164, 0.33332983325633164, 1.0500231005082113e-05;
    ( c, 1, a ) 0.9999055058586368, 3.149804712107849e-05, 3.149804712107849e-05, 3.149804712107849e-05;
    ( c, 1, b ) 0.25, 0.25, 0.25, 0.25;
    ( c, 1, c ) 3.149804712107849e-05, 3.149804712107849e-05, 0.9999055058586368, 3.149804712107849e-05;
    ( c, 1, d ) 1.575001575001575e-05, 1.575001575001575e-05, 0.49998424998425, 0.49998424998425;
    ( c, 2, a ) 0.9999055058586368, 3.149804712107849e-05, 3.149804712107849e-05, 3.149804712107849e-05;
    ( c, 2, b ) 0.25, 0.25, 0.25, 0.25;
    ( c, 2, c ) 0.25, 0.25, 0.25, 0.25;
    ( c, 2, d ) 3.149804712107849e-05, 3.149804712107849e-05, 3.149804712107849e-05, 0.9999055058586368;
    ( c, 3, a ) 0.9998277050310131, 5.743165632896853e-05, 5.743165632896853e-05, 5.743165632896853e-05;
    ( c, 3, b ) 0.9999055058586368, 3.149804712107849e-05, 3.149804712107849e-05, 3.149804712107849e-05;
    ( c, 3, c ) 0.9999055058586368, 3.149804712107849e-05, 3.149804712107849e-05, 3.149804712107849e-05;
    ( c, 3, d ) 0.9999055058586368, 3.149804712107849e-05, 3.149804712107849e-05, 3.149804712107849e-05;
    ( c, 4, a ) 0.25, 0.25, 0.25, 0.25;
    ( c, 4, b ) 0.9999055058586368, 3.149804712107849e-05, 3.149804712107849e-05, 3.149804712107849e-05;
    ( c, 4, c ) 0.49998424998425, 0.49998424998425, 1.575001575001575e-05, 1.575001575001575e-05;
    ( c, 4, d ) 0.49998424998425, 0.49998424998425, 1.575001575001575e-05, 1.575001575001575e-05;
    ( c, 5, a ) 0.25, 0.25, 0.25, 0.25;
    ( c, 5, b ) 0.9999055058586368, 3.149804712107849e-05, 3.149804712107849e-05, 3.149804712107849e-05;
    ( c, 5, c ) 0.49998424998425, 0.49998424998425, 1.575001575001575e-05, 1.575001575001575e-05;
    ( c, 5, d ) 0.33332983325633164, 0.33332983325633164, 0.33332983325633164, 1.0500231005082113e-05;
    ( c, 6, a ) 0.25, 0.25, 0.25, 0.25;
    ( c, 6, b ) 0.9999055058586368, 3.149804712107849e-05, 3.149804712107849e-05, 3.149804712107849e-05;
    ( c, 6, c ) 0.49998424998425, 0.49998424998425, 1.575001575001575e-05, 1.575001575001575e-05;
    ( c, 6, d ) 0.33332983325633164, 0.33332983325633164, 0.33332983325633164, 1.0500231005082113e-05;
    ( c, 7, a ) 0.25, 0.25, 0.25, 0.25;
    ( c, 7, b ) 0.9999055058586368, 3.149804712107849e-05, 3.149804712107849e-05, 3.149804712107849e-05;
    ( c, 7, c ) 0.49998424998425, 0.49998424998425, 1.575001575001575e-05, 1.575001575001575e-05;
    ( c, 7, d ) 0.33332983325633164, 0.33332983325633164, 0.33332983325633164, 1.0500231005082113e-05;
    ( c, 8, a ) 0.25, 0.25, 0.25, 0.25;
    ( c, 8, b ) 0.9999055058586368, 3.149804712107849e-05, 3.149804712107849e-05, 3.149804712107849e-05;
    ( c, 8, c ) 0.49998424998425, 0.49998424998425, 1.575001575001575e-05, 1.575001575001575e-05;
    ( c, 8, d ) 0.33332983325633164, 0.33332983325633164, 0.33332983325633164, 1.0500231005082113e-05;
    ( d, 1, a ) 0.9999055058586368, 3.149804712107849e-05, 3.149804712107849e-05, 3.149804712107849e-05;
    ( d, 1, b ) 0.49998424998425, 0.49998424998425, 1.575001575001575e-05, 1.575001575001575e-05;
    ( d, 1, c ) 3.149804712107849e-05, 3.149804712107849e-05, 0.9999055058586368, 3.149804712107849e-05;
    ( d, 1, d ) 1.575001575001575e-05, 1.575001575001575e-05, 0.49998424998425, 0.49998424998425;
    ( d, 2, a ) 0.9999055058586368, 3.149804712107849e-05, 3.149804712107849e-05, 3.149804712107849e-05;
    ( d, 2, b ) 0.49998424998425, 0.49998424998425, 1.575001575001575e-05, 1.575001575001575e-05;
    ( d, 2, c ) 0.25, 0.25, 0.25, 0.25;
    ( d, 2, d ) 3.149804712107849e-05, 3.149804712107849e-05, 3.149804712107849e-05, 0.9999055058586368;
    ( d, 3, a ) 0.9999055058586368, 3.149804712107849e-05, 3.149804712107849e-05, 3.149804712107849e-05;
    ( d, 3, b ) 0.49998424998425, 0.49998424998425, 1.575001575001575e-05, 1.575001575001575e-05;
    ( d, 3, c ) 0.9999055058586368, 3.149804712107849e-05, 3.149804712107849e-05, 3.149804712107849e-05;
    ( d, 3, d ) 0.9999055058586368, 3.149804712107849e-05, 3.149804712107849e-05, 3.149804712107849e-05;
    ( d, 4, a ) 0.9998277050310131, 5.743165632896853e-05, 5.743165632896853e-05, 5.743165632896853e-05;
    ( d, 4, b ) 0.6458011229554886, 0.3541581902514444, 2.034339653348523e-05, 2.034339653348523e-05;
    ( d, 4, c ) 0.49998424998425, 0.49998424998425, 1.575001575001575e-05, 1.575001575001575e-05;
    ( d, 4, d ) 0.49998424998425, 0.49998424998425, 1.575001575001575e-05, 1.575001575001575e-05;
    ( d, 5, a ) 0.25, 0.25, 0.25, 0.25;
    ( d, 5, b ) 0.9999055058586368, 3.149804712107849e-05, 3.149804712107849e-05, 3.149804712107849e-05;
    ( d, 5, c ) 0.49998424998425, 0.49998424998425, 1.575001575001575e-05, 1.575001575001575e-05;
    ( d, 5, d ) 0.33332983325633164, 0.33332983325633164, 0.33332983325633164, 1.0500231005082113e-05;
    ( d, 6, a ) 0.25, 0.25, 0.25, 0.25;
    ( d, 6, b ) 0.9999055058586368, 3.149804712107849e-05, 3.149804712107849e-05, 3.149804712107849e-05;
    ( d, 6, c ) 0.49998424998425, 0.49998424998425, 1.575001575001575e-05, 1.575001575001575e-05;
    ( d, 6, d ) 0.33332983325633164, 0.33332983325633164, 0.33332983325633164, 1.0500231005082113e-05;
    ( d, 7, a ) 0.25, 0.25, 0.25, 0.25;
    ( d, 7, b ) 0.9999055058586368, 3.149804712107849e-05, 3.149804712107849e-05, 3.149804712107849e-05;
    ( d, 7, c ) 0.49998424998425, 0.49998424998425, 1.575001575001575e-05, 1.575001575001575e-05;
    ( d, 7, d ) 0.33332983325633164, 0.33332983325633164, 0.33332983325633164, 1.0500231005082113e-05;
    ( d, 8, a ) 0.25, 0.25, 0.25, 0.25;
    ( d, 8, b ) 0.9999055058586368, 3.149804712107849e-05, 3.149804712107849e-05, 3.149804712107849e-05;
    ( d, 8, c ) 0.49998424998425, 0.49998424998425, 1.575001575001575e-05, 1.575001575001575e-05;
    ( d, 8, d ) 0.33332983325633164, 0.33332983325633164, 0.33332983325633164, 1.0500231005082113e-05;
    ( e, 1, a ) 0.9999055058586368, 3.149804712107849e-05, 3.149804712107849e-05, 3.149804712107849e-05;
    ( e, 1, b ) 0.49998424998425, 0.49998424998425, 1.575001575001575e-05, 1.575001575001575e-05;
    ( e, 1, c ) 0.33332983325633164, 0.33332983325633164, 0.33332983325633164, 1.0500231005082113e-05;
    ( e, 1, d ) 1.575001575001575e-05, 1.575001575001575e-05, 0.49998424998425, 0.49998424998425;
    ( e, 2, a ) 0.9999055058586368, 3.149804712107849e-05, 3.149804712107849e-05, 3.149804712107849e-05;
    ( e, 2, b ) 0.49998424998425, 0.49998424998425, 1.575001575001575e-05, 1.575001575001575e-05;
    ( e, 2, c ) 0.33332983325633164, 0.33332983325633164, 0.33332983325633164, 1.0500231005082113e-05;
    ( e, 2, d ) 3.149804712107849e-05, 3.149804712107849e-05, 3.149804712107849e-05, 0.9999055058586368;
    ( e, 3, a ) 0.9999055058586368, 3.149804712107849e-05, 3.149804712107849e-05, 3.149804712107849e-05;
    ( e, 3, b ) 0.49998424998425, 0.49998424998425, 1.575001575001575e-05, 1.575001575001575e-05;
    ( e, 3, c ) 0.33332983325633164, 0.33332983325633164, 0.33332983325633164, 1.0500231005082113e-05;
    ( e, 3, d ) 0.9999055058586368, 3.149804712107849e-05, 3.149804712107849e-05, 3.149804712107849e-05;
    ( e, 4, a ) 0.9999055058586368, 3.149804712107849e-05, 3.149804712107849e-05, 3.149804712107849e-05;
    ( e, 4, b ) 0.49998424998425, 0.49998424998425, 1.575001575001575e-05, 1.575001575001575e-05;
    ( e, 4, c ) 0.33332983325633164, 0.33332983325633164, 0.33332983325633164, 1.0500231005082113e-05;
    ( e, 4, d ) 0.49998424998425, 0.49998424998425, 1.575001575001575e-05, 1.575001575001575e-05;
    ( e, 5, a ) 0.9998277050310131, 5.743165632896853e-05, 5.743165632896853e-05, 5.743165632896853e-05;
    ( e, 5, b ) 0.6458011229554886, 0.3541581902514444, 2.034339653348523e-05, 2.034339653348523e-05;
    ( e, 5, c ) 0.392398022249691, 0.392398022249691, 0.21519159456118664, 1.2360939431396786e-05;
    ( e, 5, d ) 0.33332983325633164, 0.33332983325633164, 0.33332983325633164, 1.0500231005082113e-05;
    ( e, 6, a ) 0.25, 0.25, 0.25, 0.25;
    ( e, 6, b ) 0.9999055058586368, 3.149804712107849e-05, 3.149804712107849e-05, 3.149804712107849e-05;
    ( e, 6, c ) 0.49998424998425, 0.49998424998425, 1.575001575001575e-05, 1.575001575001575e-05;
    ( e, 6, d ) 0.33332983325633164, 0.33332983325633164, 0.33332983325633164, 1.0500231005082113e-05;
    ( e, 7, a ) 0.25, 0.25, 0.25, 0.25;
    ( e, 7, b ) 0.9999055058586368, 3.149804712107849e-05, 3.149804712107849e-05, 3.149804712107849e-05;
    ( e, 7, c ) 0.49998424998425, 0.49998424998425, 1.575001575001575e-05, 1.575001575001575e-05;
    ( e, 7, d ) 0.33332983325633164, 0.33332983325633164, 0.33332983325633164, 1.0500231005082113e-05;
    ( e, 8, a ) 0.25, 0.25, 0.25, 0.25;
    ( e, 8, b ) 0.9999055058586368, 3.149804712107849e-05, 3.149804712107849e-05, 3.149804712107849e-05;
    ( e, 8, c ) 0.49998424998425, 0.49998424998425, 1.575001575001575e-05, 1.575001575001575e-05;
    ( e, 8, d ) 0.33332983325633164, 0.33332983325633164, 0.33332983325633164, 1.0500231005082113e-05;
    ( f, 1, a ) 0.9999055058586368, 3.149804712107849e-05, 3.149804712107849e-05, 3.149804712107849e-05;
    ( f, 1, b ) 0.49998424998425, 0.49998424998425, 1.575001575001575e-05, 1.575001575001575e-05;
    ( f, 1, c ) 0.33332983325633164, 0.33332983325633164, 0.33332983325633164, 1.0500231005082113e-05;
    ( f, 1, d ) 0.25, 0.25, 0.25, 0.25;
    ( f, 2, a ) 0.9999055058586368, 3.149804712107849e-05, 3.149804712107849e-05, 3.149804712107849e-05;
    ( f, 2, b ) 0.49998424998425, 0.49998424998425, 1.575001575001575e-05, 1.575001575001575e-05;
    ( f, 2, c ) 0.33332983325633164, 0.33332983325633164, 0.33332983325633164, 1.0500231005082113e-05;
    ( f, 2, d ) 0.25, 0.25, 0.25, 0.25;
    ( f, 3, a ) 0.9999055058586368, 3.149804712107849e-05, 3.149804712107849e-05, 3.149804712107849e-05;
    ( f, 3, b ) 0.49998424998425, 0.49998424998425, 1.575001575001575e-05, 1.575001575001575e-05;
    ( f, 3, c ) 0.33332983325633164, 0.33332983325633164, 0.33332983325633164, 1.0500231005082113e-05;
    ( f, 3, d ) 0.25, 0.25, 0.25, 0.25;
    ( f, 4, a ) 0.9999055058586368, 3.149804712107849e-05, 3.149804712107849e-05, 3.149804712107849e-05;
    ( f, 4, b ) 0.49998424998425, 0.49998424998425, 1.575001575001575e-05, 1.575001575001575e-05;
    ( f, 4, c ) 0.33332983325633164, 0.33332983325633164, 0.33332983325633164, 1.0500231005082113e-05;
    ( f, 4, d ) 0.25, 0.25, 0.25, 0.25;
    ( f, 5, a ) 0.9999055058586368, 3.149804712107849e-05, 3.149804712107849e-05, 3.149804712107849e-05;
    ( f, 5, b ) 0.49998424998425, 0.49998424998425, 1.575001575001575e-05, 1.575001575001575e-05;
    ( f, 5, c ) 0.33332983325633164, 0.33332983325633164, 0.33332983325633164, 1.0500231005082113e-05;
    ( f, 5, d ) 0.25, 0.25, 0.25, 0.25;
    ( f, 6, a ) 0.9998277050310131, 5.743165632896853e-05, 5.743165632896853e-05, 5.743165632896853e-05;
    ( f, 6, b ) 0.6458011229554886, 0.3541581902514444, 2.034339653348523e-05, 2.034339653348523e-05;
    ( f, 6, c ) 0.392398022249691, 0.392398022249691, 0.21519159456118664, 1.2360939431396786e-05;
    ( f, 6, d ) 0.28181705195128015, 0.28181705195128015, 0.28181705195128015, 0.15454884414615958;
    ( f, 7, a ) 0.25, 0.25, 0.25, 0.25;
    ( f, 7, b ) 0.9999055058586368, 3.149804712107849e-05, 3.149804712107849e-05, 3.149804712107849e-05;
    ( f, 7, c ) 0.49998424998425, 0.49998424998425, 1.575001575001575e-05, 1.575001575001575e-05;
    ( f, 7, d ) 0.33332983325633164, 0.33332983325633164, 0.33332983325633164, 1.0500231005082113e-05;
    ( f, 8, a ) 0.25, 0.25, 0.25, 0.25;
    ( f, 8, b ) 0.9999055058586368, 3.149804712107849e-05, 3.149804712107849e-05, 3.149804712107849e-05;
    ( f, 8, c ) 0.49998424998425, 0.49998424998425, 1.575001575001575e-05, 1.575001575001575e-05;
    ( f, 8, d ) 0.33332983325633164, 0.33332983325633164, 0.33332983325633164, 1.0500231005082113e-05;
    ( g, 1, a ) 0.9999055058586368, 3.149804712107849e-05, 3.149804712107849e-05, 3.149804712107849e-05;
    ( g, 1, b ) 0.49998424998425, 0.49998424998425, 1.575001575001575e-05, 1.575001575001575e-05;
    ( g, 1, c ) 0.33332983325633164, 0.33332983325633164, 0.33332983325633164, 1.0500231005082113e-05;
    ( g, 1, d ) 0.25, 0.25, 0.25, 0.25;
    ( g, 2, a ) 0.9999055058586368, 3.149804712107849e-05, 3.149804712107849e-05, 3.149804712107849e-05;
    ( g, 2, b ) 0.49998424998425, 0.49998424998425, 1.575001575001575e-05, 1.575001575001575e-05;
    ( g, 2, c ) 0.33332983325633164, 0.33332983325633164, 0.33332983325633164, 1.0500231005082113e-05;
    ( g, 2, d ) 0.25, 0.25, 0.25, 0.25;
    ( g, 3, a ) 0.9999055058586368, 3.149804712107849e-05, 3.149804712107849e-05, 3.149804712107849e-05;
    ( g, 3, b ) 0.49998424998425, 0.49998424998425, 1.575001575001575e-05, 1.575001575001575e-05;
    ( g, 3, c ) 0.33332983325633164, 0.33332983325633164, 0.33332983325633164, 1.0500231005082113e-05;
    ( g, 3, d ) 0.25, 0.25, 0.25, 0.25;
    ( g, 4, a ) 0.9999055058586368, 3.149804712107849e-05, 3.149804712107849e-05, 3.149804712107849e-05;
    ( g, 4, b ) 0.49998424998425, 0.49998424998425, 1.575001575001575e-05, 1.575001575001575e-05;
    ( g, 4, c ) 0.33332983325633164, 0.33332983325633164, 0.33332983325633164, 1.0500231005082113e-05;
    ( g, 4, d ) 0.25, 0.25, 0.25, 0.25;
    ( g, 5, a ) 0.9999055058586368, 3.149804712107849e-05, 3.149804712107849e-05, 3.149804712107849e-05;
    ( g, 5, b ) 0.49998424998425, 0.49998424998425, 1.575001575001575e-05, 1.575001575001575e-05;
    ( g, 5, c ) 0.33332983325633164, 0.33332983325633164, 0.33332983325633164, 1.0500231005082113e-05;
    ( g, 5, d ) 0.25, 0.25, 0.25, 0.25;
    ( g, 6, a ) 0.9999055058586368, 3.149804712107849e-05, 3.149804712107849e-05, 3.149804712107849e-05;
    ( g, 6, b ) 0.49998424998425, 0.49998424998425, 1.575001575001575e-05, 1.575001575001575e-05;
    ( g, 6, c ) 0.33332983325633164, 0.33332983325633164, 0.33332983325633164, 1.0500231005082113e-05;
    ( g, 6, d ) 0.25, 0.25, 0.25, 0.25;
    ( g, 7, a ) 0.9998277050310131, 5.743165632896853e-05, 5.743165632896853e-05, 5.743165632896853e-05;
    ( g, 7, b ) 0.6458011229554886, 0.3541581902514444, 2.034339653348523e-05, 2.034339653348523e-05;
    ( g, 7, c ) 0.392398022249691, 0.392398022249691, 0.21519159456118664, 1.2360939431396786e-05;
    ( g, 7, d ) 0.28181705195128015, 0.28181705195128015, 0.28181705195128015, 0.15454884414615958;
    ( g, 8, a ) 0.25, 0.25, 0.25, 0.25;
    ( g, 8, b ) 0.9999055058586368, 3.149804712107849e-05, 3.149804712107849e-05, 3.149804712107849e-05;
    ( g, 8, c ) 0.49998424998425, 0.49998424998425, 1.575001575001575e-05, 1.575001575001575e-05;
    ( g, 8, d ) 0.33332983325633164, 0.33332983325633164, 0.33332983325633164, 1.0500231005082113e-05;
    ( h, 1, a ) 0.9999055058586368, 3.149804712107849e-05, 3.149804712107849e-05, 3.149804712107849e-05;
    ( h, 1, b ) 0.49998424998425, 0.49998424998425, 1.575001575001575e-05, 1.575001575001575e-05;
    ( h, 1, c ) 0.33332983325633164, 0.33332983325633164, 0.33332983325633164, 1.0500231005082113e-05;
    ( h, 1, d ) 0.25, 0.25, 0.25, 0.25;
    ( h, 2, a ) 0.9999055058586368, 3.149804712107849e-05, 3.149804712107849e-05, 3.149804712107849e-05;
    ( h, 2, b ) 0.49998424998425, 0.49998424998425, 1.575001575001575e-05, 1.575001575001575e-05;
    ( h, 2, c ) 0.33332983325633164, 0.33332983325633164, 0.33332983325633164, 1.0500231005082113e-05;
    ( h, 2, d ) 0.25, 0.25, 0.25, 0.25;
    ( h, 3, a ) 0.9999055058586368, 3.149804712107849e-05, 3.149804712107849e-05, 3.149804712107849e-05;
    ( h, 3, b ) 0.49998424998425, 0.49998424998425, 1.575001575001575e-05, 1.575001575001575e-05;
    ( h, 3, c ) 0.33332983325633164, 0.33332983325633164, 0.33332983325633164, 1.0500231005082113e-05;
    ( h, 3, d ) 0.25, 0.25, 0.25, 0.25;
    ( h, 4, a ) 0.9999055058586368, 3.149804712107849e-05, 3.149804712107849e-05, 3.149804712107849e-05;
    ( h, 4, b ) 0.49998424998425, 0.49998424998425, 1.575001575001575e-05, 1.575001575001575e-05;
    ( h, 4, c ) 0.33332983325633164, 0.33332983325633164, 0.33332983325633164, 1.0500231005082113e-05;
    ( h, 4, d ) 0.25, 0.25, 0.25, 0.25;
    ( h, 5, a ) 0.9999055058586368, 3.149804712107849e-05, 3.149804712107849e-05, 3.149804712107849e-05;
    ( h, 5, b ) 0.49998424998425, 0.49998424998425, 1.575001575001575e-05, 1.575001575001575e-05;
    ( h, 5, c ) 0.33332983325633164, 0.33332983325633164, 0.33332983325633164, 1.0500231005082113e-05;
    ( h, 5, d ) 0.25, 0.25, 0.25, 0.25;
    ( h, 6, a ) 0.9999055058586368, 3.149804712107849e-05, 3.149804712107849e-05, 3.149804712107849e-05;
    ( h, 6, b ) 0.49998424998425, 0.49998424998425, 1.575001575001575e-05, 1.575001575001575e-05;
    ( h, 6, c ) 0.33332983325633164, 0.33332983325633164, 0.33332983325633164, 1.0500231005082113e-05;
    ( h, 6, d ) 0.25, 0.25, 0.25, 0.25;
    ( h, 7, a ) 0.9999055058586368, 3.149804712107849e-05, 3.149804712107849e-05, 3.149804712107849e-05;
    ( h, 7, b ) 0.49998424998425, 0.49998424998425, 1.575001575001575e-05, 1.575001575001575e-05;
    ( h, 7, c ) 0.33332983325633164, 0.33332983325633164, 0.33332983325633164, 1.0500231005082113e-05;
    ( h, 7, d ) 0.25, 0.25, 0.25, 0.25;
    ( h, 8, a ) 0.9998277050310131, 5.743165632896853e-05, 5.743165632896853e-05, 5.743165632896853e-05;
    ( h, 8, b ) 0.6458011229554886, 0.3541581902514444, 2.034339653348523e-05, 2.034339653348523e-05;
    ( h, 8, c ) 0.392398022249691, 0.392398022249691, 0.21519159456118664, 1.2360939431396786e-05;
    ( h, 8, d ) 0.28181705195128015, 0.28181705195128015, 0.28181705195128015, 0.15454884414615958;

}
probability ( White_Rook_file ) {
    table 0.1236100220970846, 0.12254080832561123, 0.12150723501318697, 0.12004597619217336, 0.12745919167438877, 0.12767303442868344, 0.12827892223251836, 0.12888481003635327 ;
}
probability ( White_Rook_rank ) {
    table 0.12222004419416922, 0.1241446289828213, 0.12517820229524557, 0.12621177560766983, 0.12649689928006272, 0.1258553710171787, 0.12524948321334378, 0.12464359540950888 ;
}
