network unknown {
}
variable Contraceptive_method_used {
    type discrete [ 3 ] { 1, 2, 3 };
    property weight = None ;
}
variable Husbands_education {
    type discrete [ 4 ] { 1, 2, 3, 4 };
    property weight = None ;
}
variable Husbands_occupation {
    type discrete [ 4 ] { 1, 2, 3, 4 };
    property weight = None ;
}
variable Media_exposure {
    type discrete [ 2 ] { 0, 1 };
    property weight = None ;
}
variable Standard-of-living_index {
    type discrete [ 4 ] { 1, 2, 3, 4 };
    property weight = None ;
}
variable Wifes_education {
    type discrete [ 4 ] { 1, 2, 3, 4 };
    property weight = None ;
}
variable Wifes_now_working? {
    type discrete [ 2 ] { 0, 1 };
    property weight = None ;
}
variable Wifes_religion {
    type discrete [ 2 ] { 0, 1 };
    property weight = None ;
}
probability ( Contraceptive_method_used | Wifes_education ) {
    ( 1 ) 0.6765027322404372, 0.060109289617486336, 0.2633879781420765;
    ( 2 ) 0.5266567015445939, 0.1111111111111111, 0.36223218734429496;
    ( 3 ) 0.42671538773853024, 0.1952902963865205, 0.37799431587494925;
    ( 4 ) 0.3033189033189033, 0.35873015873015873, 0.33795093795093795;

}
probability ( Husbands_education ) {
    table 0.03016949152542373, 0.12101694915254237, 0.23898305084745763, 0.6098305084745763 ;
}
probability ( Husbands_occupation | Wifes_education ) {
    ( 1 ) 0.0860655737704918, 0.32868852459016396, 0.5254098360655738, 0.05983606557377049;
    ( 2 ) 0.0930493273542601, 0.32324364723467863, 0.5504484304932735, 0.033258594917787744;
    ( 3 ) 0.19762484774665043, 0.3267356881851401, 0.4655907429963459, 0.010048721071863581;
    ( 4 ) 0.5387445887445887, 0.2305194805194805, 0.22532467532467532, 0.005411255411255411;

}
probability ( Media_exposure | Wifes_education ) {
    ( 1 ) 0.6245901639344262, 0.37540983606557377;
    ( 2 ) 0.9155455904334828, 0.08445440956651719;
    ( 3 ) 0.9555420219244823, 0.044457978075517664;
    ( 4 ) 0.9891774891774892, 0.010822510822510822;

}
probability ( Standard-of-living_index | Wifes_education ) {
    ( 1 ) 0.19098360655737706, 0.25, 0.2959016393442623, 0.26311475409836066;
    ( 2 ) 0.1647982062780269, 0.2156203288490284, 0.29932735426008966, 0.320254110612855;
    ( 3 ) 0.09043848964677223, 0.19762484774665043, 0.3437880633373934, 0.3681485992691839;
    ( 4 ) 0.01406926406926407, 0.06601731601731602, 0.2512987012987013, 0.6686147186147187;

}
probability ( Wifes_education | Husbands_education ) {
    ( 1 ) 0.5870786516853933, 0.27247191011235955, 0.1151685393258427, 0.025280898876404494;
    ( 2 ) 0.34243697478991597, 0.49369747899159666, 0.1407563025210084, 0.023109243697478993;
    ( 3 ) 0.12234042553191489, 0.36914893617021277, 0.42872340425531913, 0.0797872340425532;
    ( 4 ) 0.024596998332406892, 0.11575875486381323, 0.2547248471372985, 0.6049193996664813;

}
probability ( Wifes_now_working? | Wifes_religion ) {
    ( 0 ) 0.3235294117647059, 0.6764705882352942;
    ( 1 ) 0.23803827751196172, 0.7619617224880383;

}
probability ( Wifes_religion | Wifes_education ) {
    ( 1 ) 0.021311475409836064, 0.978688524590164;
    ( 2 ) 0.06651718983557549, 0.9334828101644245;
    ( 3 ) 0.12728380024360536, 0.8727161997563947;
    ( 4 ) 0.24805194805194805, 0.7519480519480519;

}
