network unknown {
}
variable flag {
    type discrete [ 11 ] { OTH, REJ, RSTO, RSTOS0, RSTR, S0, S1, S2, S3, SF, SH };
    property weight = None ;
}
variable is_guest_login {
    type discrete [ 2 ] { 0, 1 };
    property weight = None ;
}
variable is_host_login {
    type discrete [ 2 ] { 0, 1 };
    property weight = None ;
}
variable logged_in {
    type discrete [ 2 ] { 0, 1 };
    property weight = None ;
}
variable protocol_type {
    type discrete [ 3 ] { icmp, tcp, udp };
    property weight = None ;
}
variable service {
    type discrete [ 47 ] { IRC, X11, auth, bgp, courier, daytime, domain, domain_u, echo, eco_i, ecr_i, finger, ftp, ftp_data, gopher, http, http_443, icmp, imap4, iso_tsap, ldap, link, login, name, netbios_dgm, netstat, nnsp, nntp, ntp_u, other, pm_dump, pop_2, pop_3, printer, private, remote_job, shell, smtp, sql_net, sunrpc, systat, telnet, tftp_u, tim_i, time, urp_i, uucp };
    property weight = None ;
}
probability ( flag ) {
    table 6.457309463748525e-05, 0.034236374024209294, 0.0059940676978709135, 3.369031024564447e-05, 0.00463522518462992, 0.004542576831454397, 0.00032707676196813186, 0.0002189870165966891, 6.457309463748525e-05, 0.948582971513439, 0.0012998844703111163 ;
}
probability ( is_guest_login | is_host_login, logged_in, service ) {
    ( 0, 0, IRC ) 0.9997688395746648, 0.0002311604253351826;
    ( 0, 0, X11 ) 0.9989384288747346, 0.0010615711252653928;
    ( 0, 0, auth ) 0.9999402414246444, 5.9758575355563525e-05;
    ( 0, 0, bgp ) 0.9947368421052633, 0.005263157894736843;
    ( 0, 0, courier ) 0.9947368421052633, 0.005263157894736843;
    ( 0, 0, daytime ) 0.9947368421052633, 0.005263157894736843;
    ( 0, 0, domain ) 0.9947368421052633, 0.005263157894736843;
    ( 0, 0, domain_u ) 0.9999983167306871, 1.6832693129904628e-06;
    ( 0, 0, echo ) 0.9947368421052633, 0.005263157894736843;
    ( 0, 0, eco_i ) 0.9999902759680273, 9.724031972617124e-06;
    ( 0, 0, ecr_i ) 0.9999704509189764, 2.9549081023580167e-05;
    ( 0, 0, finger ) 0.9999702858501218, 2.9714149878171987e-05;
    ( 0, 0, ftp ) 0.9989384288747346, 0.0010615711252653928;
    ( 0, 0, ftp_data ) 0.9999949245277272, 5.075472272694974e-06;
    ( 0, 0, gopher ) 0.9947368421052633, 0.005263157894736843;
    ( 0, 0, http ) 0.9998480704952901, 0.0001519295047098146;
    ( 0, 0, http_443 ) 0.9947368421052633, 0.005263157894736843;
    ( 0, 0, icmp ) 0.9973544973544974, 0.002645502645502646;
    ( 0, 0, imap4 ) 0.9999812051272413, 1.8794872758711425e-05;
    ( 0, 0, iso_tsap ) 0.9947368421052633, 0.005263157894736843;
    ( 0, 0, ldap ) 0.9947368421052633, 0.005263157894736843;
    ( 0, 0, link ) 0.9982332155477032, 0.0017667844522968198;
    ( 0, 0, login ) 0.9947368421052633, 0.005263157894736843;
    ( 0, 0, name ) 0.9947368421052633, 0.005263157894736843;
    ( 0, 0, netbios_dgm ) 0.9947368421052633, 0.005263157894736843;
    ( 0, 0, netstat ) 0.9947368421052633, 0.005263157894736843;
    ( 0, 0, nnsp ) 0.9973544973544974, 0.002645502645502646;
    ( 0, 0, nntp ) 0.9973544973544974, 0.002645502645502646;
    ( 0, 0, ntp_u ) 0.9999335194787927, 6.648052120728627e-05;
    ( 0, 0, other ) 0.9999972875471288, 2.712452871131364e-06;
    ( 0, 0, pm_dump ) 0.9996677740863787, 0.0003322259136212625;
    ( 0, 0, pop_2 ) 0.9947368421052633, 0.005263157894736843;
    ( 0, 0, pop_3 ) 0.9999593991067803, 4.0600893219650836e-05;
    ( 0, 0, printer ) 0.9947368421052633, 0.005263157894736843;
    ( 0, 0, private ) 0.9999996094894074, 3.905105925998242e-07;
    ( 0, 0, remote_job ) 0.9973544973544974, 0.002645502645502646;
    ( 0, 0, shell ) 0.9947368421052633, 0.005263157894736843;
    ( 0, 0, smtp ) 0.9997873245427478, 0.0002126754572522331;
    ( 0, 0, sql_net ) 0.9947368421052633, 0.005263157894736843;
    ( 0, 0, sunrpc ) 0.9999628059212974, 3.719407870267054e-05;
    ( 0, 0, systat ) 0.9973544973544974, 0.002645502645502646;
    ( 0, 0, telnet ) 0.9999848028935291, 1.5197106470927935e-05;
    ( 0, 0, tftp_u ) 0.9947368421052633, 0.005263157894736843;
    ( 0, 0, tim_i ) 0.9947368421052633, 0.005263157894736843;
    ( 0, 0, time ) 0.9998166483314999, 0.00018335166850018335;
    ( 0, 0, urp_i ) 0.9999098611862267, 9.013881377321073e-05;
    ( 0, 0, uucp ) 0.9973544973544974, 0.002645502645502646;
    ( 0, 1, IRC ) 0.5, 0.5;
    ( 0, 1, X11 ) 0.5, 0.5;
    ( 0, 1, auth ) 0.5, 0.5;
    ( 0, 1, bgp ) 0.5, 0.5;
    ( 0, 1, courier ) 0.5, 0.5;
    ( 0, 1, daytime ) 0.5, 0.5;
    ( 0, 1, domain ) 0.5, 0.5;
    ( 0, 1, domain_u ) 0.5, 0.5;
    ( 0, 1, echo ) 0.5, 0.5;
    ( 0, 1, eco_i ) 0.5, 0.5;
    ( 0, 1, ecr_i ) 0.5, 0.5;
    ( 0, 1, finger ) 0.5, 0.5;
    ( 0, 1, ftp ) 0.016992698097899578, 0.9830073019021005;
    ( 0, 1, ftp_data ) 0.5, 0.5;
    ( 0, 1, gopher ) 0.5, 0.5;
    ( 0, 1, http ) 0.9999998643593653, 1.3564063478731955e-07;
    ( 0, 1, http_443 ) 0.5, 0.5;
    ( 0, 1, icmp ) 0.5, 0.5;
    ( 0, 1, imap4 ) 0.5, 0.5;
    ( 0, 1, iso_tsap ) 0.5, 0.5;
    ( 0, 1, ldap ) 0.5, 0.5;
    ( 0, 1, link ) 0.5, 0.5;
    ( 0, 1, login ) 0.9947368421052633, 0.005263157894736843;
    ( 0, 1, name ) 0.5, 0.5;
    ( 0, 1, netbios_dgm ) 0.5, 0.5;
    ( 0, 1, netstat ) 0.5, 0.5;
    ( 0, 1, nnsp ) 0.5, 0.5;
    ( 0, 1, nntp ) 0.5, 0.5;
    ( 0, 1, ntp_u ) 0.5, 0.5;
    ( 0, 1, other ) 0.5, 0.5;
    ( 0, 1, pm_dump ) 0.5, 0.5;
    ( 0, 1, pop_2 ) 0.5, 0.5;
    ( 0, 1, pop_3 ) 0.9999652367378155, 3.47632621845234e-05;
    ( 0, 1, printer ) 0.5, 0.5;
    ( 0, 1, private ) 0.5, 0.5;
    ( 0, 1, remote_job ) 0.5, 0.5;
    ( 0, 1, shell ) 0.5, 0.5;
    ( 0, 1, smtp ) 0.9999983294186043, 1.6705813957373446e-06;
    ( 0, 1, sql_net ) 0.5, 0.5;
    ( 0, 1, sunrpc ) 0.5, 0.5;
    ( 0, 1, systat ) 0.5, 0.5;
    ( 0, 1, telnet ) 0.9999359220812508, 6.407791874919902e-05;
    ( 0, 1, tftp_u ) 0.5, 0.5;
    ( 0, 1, tim_i ) 0.5, 0.5;
    ( 0, 1, time ) 0.5, 0.5;
    ( 0, 1, urp_i ) 0.5, 0.5;
    ( 0, 1, uucp ) 0.9947368421052633, 0.005263157894736843;
    ( 1, 0, IRC ) 0.5, 0.5;
    ( 1, 0, X11 ) 0.5, 0.5;
    ( 1, 0, auth ) 0.5, 0.5;
    ( 1, 0, bgp ) 0.5, 0.5;
    ( 1, 0, courier ) 0.5, 0.5;
    ( 1, 0, daytime ) 0.5, 0.5;
    ( 1, 0, domain ) 0.5, 0.5;
    ( 1, 0, domain_u ) 0.5, 0.5;
    ( 1, 0, echo ) 0.5, 0.5;
    ( 1, 0, eco_i ) 0.5, 0.5;
    ( 1, 0, ecr_i ) 0.5, 0.5;
    ( 1, 0, finger ) 0.5, 0.5;
    ( 1, 0, ftp ) 0.5, 0.5;
    ( 1, 0, ftp_data ) 0.5, 0.5;
    ( 1, 0, gopher ) 0.5, 0.5;
    ( 1, 0, http ) 0.5, 0.5;
    ( 1, 0, http_443 ) 0.5, 0.5;
    ( 1, 0, icmp ) 0.5, 0.5;
    ( 1, 0, imap4 ) 0.5, 0.5;
    ( 1, 0, iso_tsap ) 0.5, 0.5;
    ( 1, 0, ldap ) 0.5, 0.5;
    ( 1, 0, link ) 0.5, 0.5;
    ( 1, 0, login ) 0.5, 0.5;
    ( 1, 0, name ) 0.5, 0.5;
    ( 1, 0, netbios_dgm ) 0.5, 0.5;
    ( 1, 0, netstat ) 0.5, 0.5;
    ( 1, 0, nnsp ) 0.5, 0.5;
    ( 1, 0, nntp ) 0.5, 0.5;
    ( 1, 0, ntp_u ) 0.5, 0.5;
    ( 1, 0, other ) 0.5, 0.5;
    ( 1, 0, pm_dump ) 0.5, 0.5;
    ( 1, 0, pop_2 ) 0.5, 0.5;
    ( 1, 0, pop_3 ) 0.5, 0.5;
    ( 1, 0, printer ) 0.5, 0.5;
    ( 1, 0, private ) 0.5, 0.5;
    ( 1, 0, remote_job ) 0.5, 0.5;
    ( 1, 0, shell ) 0.5, 0.5;
    ( 1, 0, smtp ) 0.5, 0.5;
    ( 1, 0, sql_net ) 0.5, 0.5;
    ( 1, 0, sunrpc ) 0.5, 0.5;
    ( 1, 0, systat ) 0.5, 0.5;
    ( 1, 0, telnet ) 0.5, 0.5;
    ( 1, 0, tftp_u ) 0.5, 0.5;
    ( 1, 0, tim_i ) 0.5, 0.5;
    ( 1, 0, time ) 0.5, 0.5;
    ( 1, 0, urp_i ) 0.5, 0.5;
    ( 1, 0, uucp ) 0.5, 0.5;
    ( 1, 1, IRC ) 0.5, 0.5;
    ( 1, 1, X11 ) 0.5, 0.5;
    ( 1, 1, auth ) 0.5, 0.5;
    ( 1, 1, bgp ) 0.5, 0.5;
    ( 1, 1, courier ) 0.5, 0.5;
    ( 1, 1, daytime ) 0.5, 0.5;
    ( 1, 1, domain ) 0.5, 0.5;
    ( 1, 1, domain_u ) 0.5, 0.5;
    ( 1, 1, echo ) 0.5, 0.5;
    ( 1, 1, eco_i ) 0.5, 0.5;
    ( 1, 1, ecr_i ) 0.5, 0.5;
    ( 1, 1, finger ) 0.5, 0.5;
    ( 1, 1, ftp ) 0.9947368421052633, 0.005263157894736843;
    ( 1, 1, ftp_data ) 0.5, 0.5;
    ( 1, 1, gopher ) 0.5, 0.5;
    ( 1, 1, http ) 0.5, 0.5;
    ( 1, 1, http_443 ) 0.5, 0.5;
    ( 1, 1, icmp ) 0.5, 0.5;
    ( 1, 1, imap4 ) 0.5, 0.5;
    ( 1, 1, iso_tsap ) 0.5, 0.5;
    ( 1, 1, ldap ) 0.5, 0.5;
    ( 1, 1, link ) 0.5, 0.5;
    ( 1, 1, login ) 0.5, 0.5;
    ( 1, 1, name ) 0.5, 0.5;
    ( 1, 1, netbios_dgm ) 0.5, 0.5;
    ( 1, 1, netstat ) 0.5, 0.5;
    ( 1, 1, nnsp ) 0.5, 0.5;
    ( 1, 1, nntp ) 0.5, 0.5;
    ( 1, 1, ntp_u ) 0.5, 0.5;
    ( 1, 1, other ) 0.5, 0.5;
    ( 1, 1, pm_dump ) 0.5, 0.5;
    ( 1, 1, pop_2 ) 0.5, 0.5;
    ( 1, 1, pop_3 ) 0.5, 0.5;
    ( 1, 1, printer ) 0.5, 0.5;
    ( 1, 1, private ) 0.5, 0.5;
    ( 1, 1, remote_job ) 0.5, 0.5;
    ( 1, 1, shell ) 0.5, 0.5;
    ( 1, 1, smtp ) 0.5, 0.5;
    ( 1, 1, sql_net ) 0.5, 0.5;
    ( 1, 1, sunrpc ) 0.5, 0.5;
    ( 1, 1, systat ) 0.5, 0.5;
    ( 1, 1, telnet ) 0.5, 0.5;
    ( 1, 1, tftp_u ) 0.5, 0.5;
    ( 1, 1, tim_i ) 0.5, 0.5;
    ( 1, 1, time ) 0.5, 0.5;
    ( 1, 1, urp_i ) 0.5, 0.5;
    ( 1, 1, uucp ) 0.5, 0.5;

}
probability ( is_host_login ) {
    table 0.9999691172156081, 3.0882784391840767e-05 ;
}
probability ( logged_in | flag, service ) {
    ( OTH, IRC ) 0.5, 0.5;
    ( OTH, X11 ) 0.5, 0.5;
    ( OTH, auth ) 0.5, 0.5;
    ( OTH, bgp ) 0.5, 0.5;
    ( OTH, courier ) 0.5, 0.5;
    ( OTH, daytime ) 0.5, 0.5;
    ( OTH, domain ) 0.5, 0.5;
    ( OTH, domain_u ) 0.5, 0.5;
    ( OTH, echo ) 0.5, 0.5;
    ( OTH, eco_i ) 0.5, 0.5;
    ( OTH, ecr_i ) 0.5, 0.5;
    ( OTH, finger ) 0.5, 0.5;
    ( OTH, ftp ) 0.5, 0.5;
    ( OTH, ftp_data ) 0.5, 0.5;
    ( OTH, gopher ) 0.5, 0.5;
    ( OTH, http ) 0.5, 0.5;
    ( OTH, http_443 ) 0.5, 0.5;
    ( OTH, icmp ) 0.5, 0.5;
    ( OTH, imap4 ) 0.5, 0.5;
    ( OTH, iso_tsap ) 0.5, 0.5;
    ( OTH, ldap ) 0.5, 0.5;
    ( OTH, link ) 0.5, 0.5;
    ( OTH, login ) 0.5, 0.5;
    ( OTH, name ) 0.5, 0.5;
    ( OTH, netbios_dgm ) 0.5, 0.5;
    ( OTH, netstat ) 0.5, 0.5;
    ( OTH, nnsp ) 0.5, 0.5;
    ( OTH, nntp ) 0.5, 0.5;
    ( OTH, ntp_u ) 0.5, 0.5;
    ( OTH, other ) 0.5, 0.5;
    ( OTH, pm_dump ) 0.5, 0.5;
    ( OTH, pop_2 ) 0.5, 0.5;
    ( OTH, pop_3 ) 0.5, 0.5;
    ( OTH, printer ) 0.5, 0.5;
    ( OTH, private ) 0.9995169082125603, 0.00048309178743961346;
    ( OTH, remote_job ) 0.5, 0.5;
    ( OTH, shell ) 0.5, 0.5;
    ( OTH, smtp ) 0.5, 0.5;
    ( OTH, sql_net ) 0.5, 0.5;
    ( OTH, sunrpc ) 0.5, 0.5;
    ( OTH, systat ) 0.5, 0.5;
    ( OTH, telnet ) 0.5, 0.5;
    ( OTH, tftp_u ) 0.5, 0.5;
    ( OTH, tim_i ) 0.5, 0.5;
    ( OTH, time ) 0.5, 0.5;
    ( OTH, urp_i ) 0.5, 0.5;
    ( OTH, uucp ) 0.5, 0.5;
    ( REJ, IRC ) 0.9990347490347491, 0.0009652509652509653;
    ( REJ, X11 ) 0.5, 0.5;
    ( REJ, auth ) 0.998073217726397, 0.001926782273603083;
    ( REJ, bgp ) 0.998073217726397, 0.001926782273603083;
    ( REJ, courier ) 0.5, 0.5;
    ( REJ, daytime ) 0.5, 0.5;
    ( REJ, domain ) 0.5, 0.5;
    ( REJ, domain_u ) 0.5, 0.5;
    ( REJ, echo ) 0.5, 0.5;
    ( REJ, eco_i ) 0.5, 0.5;
    ( REJ, ecr_i ) 0.5, 0.5;
    ( REJ, finger ) 0.5, 0.5;
    ( REJ, ftp ) 0.998073217726397, 0.001926782273603083;
    ( REJ, ftp_data ) 0.998073217726397, 0.001926782273603083;
    ( REJ, gopher ) 0.5, 0.5;
    ( REJ, http ) 0.9999226425311364, 7.735746886361877e-05;
    ( REJ, http_443 ) 0.998073217726397, 0.001926782273603083;
    ( REJ, icmp ) 0.5, 0.5;
    ( REJ, imap4 ) 0.9999702442943434, 2.9755705656559643e-05;
    ( REJ, iso_tsap ) 0.5, 0.5;
    ( REJ, ldap ) 0.998073217726397, 0.001926782273603083;
    ( REJ, link ) 0.998073217726397, 0.001926782273603083;
    ( REJ, login ) 0.5, 0.5;
    ( REJ, name ) 0.998073217726397, 0.001926782273603083;
    ( REJ, netbios_dgm ) 0.5, 0.5;
    ( REJ, netstat ) 0.998073217726397, 0.001926782273603083;
    ( REJ, nnsp ) 0.5, 0.5;
    ( REJ, nntp ) 0.998073217726397, 0.001926782273603083;
    ( REJ, ntp_u ) 0.5, 0.5;
    ( REJ, other ) 0.9999987130864948, 1.2869135052563984e-06;
    ( REJ, pm_dump ) 0.5, 0.5;
    ( REJ, pop_2 ) 0.998073217726397, 0.001926782273603083;
    ( REJ, pop_3 ) 0.9999648345465415, 3.5165453458522345e-05;
    ( REJ, printer ) 0.5, 0.5;
    ( REJ, private ) 0.9999934875057799, 6.512494220161381e-06;
    ( REJ, remote_job ) 0.5, 0.5;
    ( REJ, shell ) 0.5, 0.5;
    ( REJ, smtp ) 0.9999079104889952, 9.208951100469656e-05;
    ( REJ, sql_net ) 0.998073217726397, 0.001926782273603083;
    ( REJ, sunrpc ) 0.9999863789909557, 1.3621009044350005e-05;
    ( REJ, systat ) 0.9990347490347491, 0.0009652509652509653;
    ( REJ, telnet ) 0.99997897657991, 2.1023420089980236e-05;
    ( REJ, tftp_u ) 0.5, 0.5;
    ( REJ, tim_i ) 0.5, 0.5;
    ( REJ, time ) 0.5, 0.5;
    ( REJ, urp_i ) 0.5, 0.5;
    ( REJ, uucp ) 0.998073217726397, 0.001926782273603083;
    ( RSTO, IRC ) 0.998073217726397, 0.001926782273603083;
    ( RSTO, X11 ) 0.5, 0.5;
    ( RSTO, auth ) 0.5, 0.5;
    ( RSTO, bgp ) 0.5, 0.5;
    ( RSTO, courier ) 0.5, 0.5;
    ( RSTO, daytime ) 0.5, 0.5;
    ( RSTO, domain ) 0.5, 0.5;
    ( RSTO, domain_u ) 0.5, 0.5;
    ( RSTO, echo ) 0.5, 0.5;
    ( RSTO, eco_i ) 0.5, 0.5;
    ( RSTO, ecr_i ) 0.5, 0.5;
    ( RSTO, finger ) 0.5, 0.5;
    ( RSTO, ftp ) 0.5, 0.5;
    ( RSTO, ftp_data ) 0.5, 0.5;
    ( RSTO, gopher ) 0.998073217726397, 0.001926782273603083;
    ( RSTO, http ) 0.001926782273603083, 0.998073217726397;
    ( RSTO, http_443 ) 0.5, 0.5;
    ( RSTO, icmp ) 0.5, 0.5;
    ( RSTO, imap4 ) 0.999985881887874, 1.4118112126046504e-05;
    ( RSTO, iso_tsap ) 0.5, 0.5;
    ( RSTO, ldap ) 0.5, 0.5;
    ( RSTO, link ) 0.5, 0.5;
    ( RSTO, login ) 0.5, 0.5;
    ( RSTO, name ) 0.5, 0.5;
    ( RSTO, netbios_dgm ) 0.5, 0.5;
    ( RSTO, netstat ) 0.5, 0.5;
    ( RSTO, nnsp ) 0.5, 0.5;
    ( RSTO, nntp ) 0.5, 0.5;
    ( RSTO, ntp_u ) 0.5, 0.5;
    ( RSTO, other ) 0.5, 0.5;
    ( RSTO, pm_dump ) 0.5, 0.5;
    ( RSTO, pop_2 ) 0.5, 0.5;
    ( RSTO, pop_3 ) 1.4015809833492179e-05, 0.9999859841901665;
    ( RSTO, printer ) 0.998073217726397, 0.001926782273603083;
    ( RSTO, private ) 0.5, 0.5;
    ( RSTO, remote_job ) 0.5, 0.5;
    ( RSTO, shell ) 0.5, 0.5;
    ( RSTO, smtp ) 0.998073217726397, 0.001926782273603083;
    ( RSTO, sql_net ) 0.5, 0.5;
    ( RSTO, sunrpc ) 0.998073217726397, 0.001926782273603083;
    ( RSTO, systat ) 0.5, 0.5;
    ( RSTO, telnet ) 0.9905481351726151, 0.009451864827384861;
    ( RSTO, tftp_u ) 0.5, 0.5;
    ( RSTO, tim_i ) 0.5, 0.5;
    ( RSTO, time ) 0.998073217726397, 0.001926782273603083;
    ( RSTO, urp_i ) 0.5, 0.5;
    ( RSTO, uucp ) 0.5, 0.5;
    ( RSTOS0, IRC ) 0.5, 0.5;
    ( RSTOS0, X11 ) 0.5, 0.5;
    ( RSTOS0, auth ) 0.5, 0.5;
    ( RSTOS0, bgp ) 0.5, 0.5;
    ( RSTOS0, courier ) 0.5, 0.5;
    ( RSTOS0, daytime ) 0.5, 0.5;
    ( RSTOS0, domain ) 0.5, 0.5;
    ( RSTOS0, domain_u ) 0.5, 0.5;
    ( RSTOS0, echo ) 0.5, 0.5;
    ( RSTOS0, eco_i ) 0.5, 0.5;
    ( RSTOS0, ecr_i ) 0.5, 0.5;
    ( RSTOS0, finger ) 0.5, 0.5;
    ( RSTOS0, ftp ) 0.5, 0.5;
    ( RSTOS0, ftp_data ) 0.5, 0.5;
    ( RSTOS0, gopher ) 0.5, 0.5;
    ( RSTOS0, http ) 0.5, 0.5;
    ( RSTOS0, http_443 ) 0.5, 0.5;
    ( RSTOS0, icmp ) 0.5, 0.5;
    ( RSTOS0, imap4 ) 0.5, 0.5;
    ( RSTOS0, iso_tsap ) 0.5, 0.5;
    ( RSTOS0, ldap ) 0.5, 0.5;
    ( RSTOS0, link ) 0.5, 0.5;
    ( RSTOS0, login ) 0.5, 0.5;
    ( RSTOS0, name ) 0.5, 0.5;
    ( RSTOS0, netbios_dgm ) 0.5, 0.5;
    ( RSTOS0, netstat ) 0.5, 0.5;
    ( RSTOS0, nnsp ) 0.5, 0.5;
    ( RSTOS0, nntp ) 0.5, 0.5;
    ( RSTOS0, ntp_u ) 0.5, 0.5;
    ( RSTOS0, other ) 0.998073217726397, 0.001926782273603083;
    ( RSTOS0, pm_dump ) 0.5, 0.5;
    ( RSTOS0, pop_2 ) 0.5, 0.5;
    ( RSTOS0, pop_3 ) 0.5, 0.5;
    ( RSTOS0, printer ) 0.5, 0.5;
    ( RSTOS0, private ) 0.998073217726397, 0.001926782273603083;
    ( RSTOS0, remote_job ) 0.5, 0.5;
    ( RSTOS0, shell ) 0.5, 0.5;
    ( RSTOS0, smtp ) 0.5, 0.5;
    ( RSTOS0, sql_net ) 0.5, 0.5;
    ( RSTOS0, sunrpc ) 0.5, 0.5;
    ( RSTOS0, systat ) 0.5, 0.5;
    ( RSTOS0, telnet ) 0.5, 0.5;
    ( RSTOS0, tftp_u ) 0.5, 0.5;
    ( RSTOS0, tim_i ) 0.5, 0.5;
    ( RSTOS0, time ) 0.5, 0.5;
    ( RSTOS0, urp_i ) 0.5, 0.5;
    ( RSTOS0, uucp ) 0.5, 0.5;
    ( RSTR, IRC ) 0.9998242221831606, 0.00017577781683951487;
    ( RSTR, X11 ) 0.5, 0.5;
    ( RSTR, auth ) 0.5, 0.5;
    ( RSTR, bgp ) 0.5, 0.5;
    ( RSTR, courier ) 0.5, 0.5;
    ( RSTR, daytime ) 0.998073217726397, 0.001926782273603083;
    ( RSTR, domain ) 0.5, 0.5;
    ( RSTR, domain_u ) 0.5, 0.5;
    ( RSTR, echo ) 0.998073217726397, 0.001926782273603083;
    ( RSTR, eco_i ) 0.5, 0.5;
    ( RSTR, ecr_i ) 0.5, 0.5;
    ( RSTR, finger ) 0.5, 0.5;
    ( RSTR, ftp ) 0.9990347490347491, 0.0009652509652509653;
    ( RSTR, ftp_data ) 0.5, 0.5;
    ( RSTR, gopher ) 0.5, 0.5;
    ( RSTR, http ) 0.998073217726397, 0.001926782273603083;
    ( RSTR, http_443 ) 0.5, 0.5;
    ( RSTR, icmp ) 0.5, 0.5;
    ( RSTR, imap4 ) 0.5, 0.5;
    ( RSTR, iso_tsap ) 0.998073217726397, 0.001926782273603083;
    ( RSTR, ldap ) 0.5, 0.5;
    ( RSTR, link ) 0.9990347490347491, 0.0009652509652509653;
    ( RSTR, login ) 0.5, 0.5;
    ( RSTR, name ) 0.5, 0.5;
    ( RSTR, netbios_dgm ) 0.998073217726397, 0.001926782273603083;
    ( RSTR, netstat ) 0.5, 0.5;
    ( RSTR, nnsp ) 0.998073217726397, 0.001926782273603083;
    ( RSTR, nntp ) 0.5, 0.5;
    ( RSTR, ntp_u ) 0.5, 0.5;
    ( RSTR, other ) 0.9999764128691386, 2.358713086140202e-05;
    ( RSTR, pm_dump ) 0.5, 0.5;
    ( RSTR, pop_2 ) 0.5, 0.5;
    ( RSTR, pop_3 ) 0.5, 0.5;
    ( RSTR, printer ) 0.5, 0.5;
    ( RSTR, private ) 0.9999901316438707, 9.868356129235993e-06;
    ( RSTR, remote_job ) 0.998073217726397, 0.001926782273603083;
    ( RSTR, shell ) 0.5, 0.5;
    ( RSTR, smtp ) 0.5, 0.5;
    ( RSTR, sql_net ) 0.5, 0.5;
    ( RSTR, sunrpc ) 0.5, 0.5;
    ( RSTR, systat ) 0.5, 0.5;
    ( RSTR, telnet ) 0.5, 0.5;
    ( RSTR, tftp_u ) 0.5, 0.5;
    ( RSTR, tim_i ) 0.5, 0.5;
    ( RSTR, time ) 0.5, 0.5;
    ( RSTR, urp_i ) 0.5, 0.5;
    ( RSTR, uucp ) 0.5, 0.5;
    ( S0, IRC ) 0.5, 0.5;
    ( S0, X11 ) 0.5, 0.5;
    ( S0, auth ) 0.5, 0.5;
    ( S0, bgp ) 0.5, 0.5;
    ( S0, courier ) 0.5, 0.5;
    ( S0, daytime ) 0.5, 0.5;
    ( S0, domain ) 0.5, 0.5;
    ( S0, domain_u ) 0.5, 0.5;
    ( S0, echo ) 0.5, 0.5;
    ( S0, eco_i ) 0.5, 0.5;
    ( S0, ecr_i ) 0.5, 0.5;
    ( S0, finger ) 0.5, 0.5;
    ( S0, ftp ) 0.5, 0.5;
    ( S0, ftp_data ) 0.5, 0.5;
    ( S0, gopher ) 0.5, 0.5;
    ( S0, http ) 0.5, 0.5;
    ( S0, http_443 ) 0.5, 0.5;
    ( S0, icmp ) 0.5, 0.5;
    ( S0, imap4 ) 0.9999706951119447, 2.9304888055327628e-05;
    ( S0, iso_tsap ) 0.5, 0.5;
    ( S0, ldap ) 0.5, 0.5;
    ( S0, link ) 0.5, 0.5;
    ( S0, login ) 0.5, 0.5;
    ( S0, name ) 0.5, 0.5;
    ( S0, netbios_dgm ) 0.5, 0.5;
    ( S0, netstat ) 0.5, 0.5;
    ( S0, nnsp ) 0.5, 0.5;
    ( S0, nntp ) 0.5, 0.5;
    ( S0, ntp_u ) 0.5, 0.5;
    ( S0, other ) 0.9999802636772717, 1.9736322728349255e-05;
    ( S0, pm_dump ) 0.5, 0.5;
    ( S0, pop_2 ) 0.5, 0.5;
    ( S0, pop_3 ) 0.999968804591964, 3.119540803593711e-05;
    ( S0, printer ) 0.5, 0.5;
    ( S0, private ) 0.9998618784530388, 0.00013812154696132598;
    ( S0, remote_job ) 0.998073217726397, 0.001926782273603083;
    ( S0, shell ) 0.5, 0.5;
    ( S0, smtp ) 0.5, 0.5;
    ( S0, sql_net ) 0.5, 0.5;
    ( S0, sunrpc ) 0.5, 0.5;
    ( S0, systat ) 0.5, 0.5;
    ( S0, telnet ) 0.9999635076451483, 3.649235485165858e-05;
    ( S0, tftp_u ) 0.5, 0.5;
    ( S0, tim_i ) 0.5, 0.5;
    ( S0, time ) 0.5, 0.5;
    ( S0, urp_i ) 0.5, 0.5;
    ( S0, uucp ) 0.5, 0.5;
    ( S1, IRC ) 0.5, 0.5;
    ( S1, X11 ) 0.9990347490347491, 0.0009652509652509653;
    ( S1, auth ) 0.5, 0.5;
    ( S1, bgp ) 0.5, 0.5;
    ( S1, courier ) 0.5, 0.5;
    ( S1, daytime ) 0.5, 0.5;
    ( S1, domain ) 0.5, 0.5;
    ( S1, domain_u ) 0.5, 0.5;
    ( S1, echo ) 0.5, 0.5;
    ( S1, eco_i ) 0.5, 0.5;
    ( S1, ecr_i ) 0.5, 0.5;
    ( S1, finger ) 0.5, 0.5;
    ( S1, ftp ) 0.5, 0.5;
    ( S1, ftp_data ) 0.998073217726397, 0.001926782273603083;
    ( S1, gopher ) 0.5, 0.5;
    ( S1, http ) 0.00014874312063067085, 0.9998512568793694;
    ( S1, http_443 ) 0.5, 0.5;
    ( S1, icmp ) 0.5, 0.5;
    ( S1, imap4 ) 0.5, 0.5;
    ( S1, iso_tsap ) 0.5, 0.5;
    ( S1, ldap ) 0.5, 0.5;
    ( S1, link ) 0.5, 0.5;
    ( S1, login ) 0.5, 0.5;
    ( S1, name ) 0.5, 0.5;
    ( S1, netbios_dgm ) 0.5, 0.5;
    ( S1, netstat ) 0.5, 0.5;
    ( S1, nnsp ) 0.5, 0.5;
    ( S1, nntp ) 0.5, 0.5;
    ( S1, ntp_u ) 0.5, 0.5;
    ( S1, other ) 0.5, 0.5;
    ( S1, pm_dump ) 0.5, 0.5;
    ( S1, pop_2 ) 0.5, 0.5;
    ( S1, pop_3 ) 0.5, 0.5;
    ( S1, printer ) 0.5, 0.5;
    ( S1, private ) 0.998073217726397, 0.001926782273603083;
    ( S1, remote_job ) 0.5, 0.5;
    ( S1, shell ) 0.5, 0.5;
    ( S1, smtp ) 0.5, 0.5;
    ( S1, sql_net ) 0.5, 0.5;
    ( S1, sunrpc ) 0.5, 0.5;
    ( S1, systat ) 0.5, 0.5;
    ( S1, telnet ) 0.9995169082125603, 0.00048309178743961346;
    ( S1, tftp_u ) 0.5, 0.5;
    ( S1, tim_i ) 0.5, 0.5;
    ( S1, time ) 0.5, 0.5;
    ( S1, urp_i ) 0.5, 0.5;
    ( S1, uucp ) 0.5, 0.5;
    ( S2, IRC ) 0.5, 0.5;
    ( S2, X11 ) 0.5, 0.5;
    ( S2, auth ) 0.5, 0.5;
    ( S2, bgp ) 0.5, 0.5;
    ( S2, courier ) 0.5, 0.5;
    ( S2, daytime ) 0.5, 0.5;
    ( S2, domain ) 0.5, 0.5;
    ( S2, domain_u ) 0.5, 0.5;
    ( S2, echo ) 0.5, 0.5;
    ( S2, eco_i ) 0.5, 0.5;
    ( S2, ecr_i ) 0.5, 0.5;
    ( S2, finger ) 0.998073217726397, 0.001926782273603083;
    ( S2, ftp ) 0.5, 0.5;
    ( S2, ftp_data ) 0.5, 0.5;
    ( S2, gopher ) 0.5, 0.5;
    ( S2, http ) 0.11127819548872181, 0.8887218045112782;
    ( S2, http_443 ) 0.5, 0.5;
    ( S2, icmp ) 0.5, 0.5;
    ( S2, imap4 ) 0.5, 0.5;
    ( S2, iso_tsap ) 0.5, 0.5;
    ( S2, ldap ) 0.5, 0.5;
    ( S2, link ) 0.5, 0.5;
    ( S2, login ) 0.5, 0.5;
    ( S2, name ) 0.5, 0.5;
    ( S2, netbios_dgm ) 0.5, 0.5;
    ( S2, netstat ) 0.5, 0.5;
    ( S2, nnsp ) 0.5, 0.5;
    ( S2, nntp ) 0.5, 0.5;
    ( S2, ntp_u ) 0.5, 0.5;
    ( S2, other ) 0.5, 0.5;
    ( S2, pm_dump ) 0.5, 0.5;
    ( S2, pop_2 ) 0.5, 0.5;
    ( S2, pop_3 ) 0.5, 0.5;
    ( S2, printer ) 0.5, 0.5;
    ( S2, private ) 0.998073217726397, 0.001926782273603083;
    ( S2, remote_job ) 0.5, 0.5;
    ( S2, shell ) 0.5, 0.5;
    ( S2, smtp ) 0.6664520283322601, 0.33354797166773986;
    ( S2, sql_net ) 0.5, 0.5;
    ( S2, sunrpc ) 0.5, 0.5;
    ( S2, systat ) 0.5, 0.5;
    ( S2, telnet ) 0.5, 0.5;
    ( S2, tftp_u ) 0.5, 0.5;
    ( S2, tim_i ) 0.5, 0.5;
    ( S2, time ) 0.5, 0.5;
    ( S2, urp_i ) 0.5, 0.5;
    ( S2, uucp ) 0.5, 0.5;
    ( S3, IRC ) 0.5, 0.5;
    ( S3, X11 ) 0.998073217726397, 0.001926782273603083;
    ( S3, auth ) 0.5, 0.5;
    ( S3, bgp ) 0.5, 0.5;
    ( S3, courier ) 0.5, 0.5;
    ( S3, daytime ) 0.5, 0.5;
    ( S3, domain ) 0.5, 0.5;
    ( S3, domain_u ) 0.5, 0.5;
    ( S3, echo ) 0.5, 0.5;
    ( S3, eco_i ) 0.5, 0.5;
    ( S3, ecr_i ) 0.5, 0.5;
    ( S3, finger ) 0.5, 0.5;
    ( S3, ftp ) 0.998073217726397, 0.001926782273603083;
    ( S3, ftp_data ) 0.5, 0.5;
    ( S3, gopher ) 0.5, 0.5;
    ( S3, http ) 0.0009652509652509653, 0.9990347490347491;
    ( S3, http_443 ) 0.5, 0.5;
    ( S3, icmp ) 0.5, 0.5;
    ( S3, imap4 ) 0.5, 0.5;
    ( S3, iso_tsap ) 0.5, 0.5;
    ( S3, ldap ) 0.5, 0.5;
    ( S3, link ) 0.5, 0.5;
    ( S3, login ) 0.5, 0.5;
    ( S3, name ) 0.5, 0.5;
    ( S3, netbios_dgm ) 0.5, 0.5;
    ( S3, netstat ) 0.5, 0.5;
    ( S3, nnsp ) 0.5, 0.5;
    ( S3, nntp ) 0.5, 0.5;
    ( S3, ntp_u ) 0.5, 0.5;
    ( S3, other ) 0.5, 0.5;
    ( S3, pm_dump ) 0.5, 0.5;
    ( S3, pop_2 ) 0.5, 0.5;
    ( S3, pop_3 ) 0.5, 0.5;
    ( S3, printer ) 0.5, 0.5;
    ( S3, private ) 0.5, 0.5;
    ( S3, remote_job ) 0.5, 0.5;
    ( S3, shell ) 0.5, 0.5;
    ( S3, smtp ) 0.5, 0.5;
    ( S3, sql_net ) 0.5, 0.5;
    ( S3, sunrpc ) 0.5, 0.5;
    ( S3, systat ) 0.5, 0.5;
    ( S3, telnet ) 0.5, 0.5;
    ( S3, tftp_u ) 0.5, 0.5;
    ( S3, tim_i ) 0.5, 0.5;
    ( S3, time ) 0.5, 0.5;
    ( S3, urp_i ) 0.5, 0.5;
    ( S3, uucp ) 0.5, 0.5;
    ( SF, IRC ) 0.9997851772287863, 0.0002148227712137487;
    ( SF, X11 ) 0.9990347490347491, 0.0009652509652509653;
    ( SF, auth ) 0.9999780210119126, 2.1978988087388455e-05;
    ( SF, bgp ) 0.5, 0.5;
    ( SF, courier ) 0.5, 0.5;
    ( SF, daytime ) 0.5, 0.5;
    ( SF, domain ) 0.5, 0.5;
    ( SF, domain_u ) 0.9999993879007566, 6.120992433229154e-07;
    ( SF, echo ) 0.5, 0.5;
    ( SF, eco_i ) 0.9999964639446112, 3.536055388771609e-06;
    ( SF, ecr_i ) 0.9999892544755109, 1.0745524489050311e-05;
    ( SF, finger ) 0.9999891337419047, 1.086625809536228e-05;
    ( SF, ftp ) 0.008349182811643725, 0.9916508171883562;
    ( SF, ftp_data ) 0.9999981508328649, 1.8491671351223411e-06;
    ( SF, gopher ) 0.5, 0.5;
    ( SF, http ) 0.00020413616281746394, 0.9997958638371827;
    ( SF, http_443 ) 0.5, 0.5;
    ( SF, icmp ) 0.9990347490347491, 0.0009652509652509653;
    ( SF, imap4 ) 0.9998710841820292, 0.00012891581797086504;
    ( SF, iso_tsap ) 0.5, 0.5;
    ( SF, ldap ) 0.5, 0.5;
    ( SF, link ) 0.5, 0.5;
    ( SF, login ) 0.5, 0.5;
    ( SF, name ) 0.5, 0.5;
    ( SF, netbios_dgm ) 0.5, 0.5;
    ( SF, netstat ) 0.5, 0.5;
    ( SF, nnsp ) 0.5, 0.5;
    ( SF, nntp ) 0.998073217726397, 0.001926782273603083;
    ( SF, ntp_u ) 0.9999758232193801, 2.4176780619892654e-05;
    ( SF, other ) 0.9999930172961575, 6.982703842581926e-06;
    ( SF, pm_dump ) 0.9998791394730481, 0.00012086052695189749;
    ( SF, pop_2 ) 0.5, 0.5;
    ( SF, pop_3 ) 0.4827609203067689, 0.5172390796932311;
    ( SF, printer ) 0.5, 0.5;
    ( SF, private ) 0.9999998515210407, 1.4847895926940036e-07;
    ( SF, remote_job ) 0.5, 0.5;
    ( SF, shell ) 0.998073217726397, 0.001926782273603083;
    ( SF, smtp ) 0.00031467745560800176, 0.9996853225443919;
    ( SF, sql_net ) 0.5, 0.5;
    ( SF, sunrpc ) 0.5, 0.5;
    ( SF, systat ) 0.5, 0.5;
    ( SF, telnet ) 0.5393249880471161, 0.4606750119528839;
    ( SF, tftp_u ) 0.998073217726397, 0.001926782273603083;
    ( SF, tim_i ) 0.998073217726397, 0.001926782273603083;
    ( SF, time ) 0.9999309296864207, 6.907031357922364e-05;
    ( SF, urp_i ) 0.9999672184887723, 3.27815112276676e-05;
    ( SF, uucp ) 0.001926782273603083, 0.998073217726397;
    ( SH, IRC ) 0.5, 0.5;
    ( SH, X11 ) 0.5, 0.5;
    ( SH, auth ) 0.5, 0.5;
    ( SH, bgp ) 0.5, 0.5;
    ( SH, courier ) 0.998073217726397, 0.001926782273603083;
    ( SH, daytime ) 0.5, 0.5;
    ( SH, domain ) 0.998073217726397, 0.001926782273603083;
    ( SH, domain_u ) 0.5, 0.5;
    ( SH, echo ) 0.5, 0.5;
    ( SH, eco_i ) 0.5, 0.5;
    ( SH, ecr_i ) 0.5, 0.5;
    ( SH, finger ) 0.5, 0.5;
    ( SH, ftp ) 0.5, 0.5;
    ( SH, ftp_data ) 0.5, 0.5;
    ( SH, gopher ) 0.5, 0.5;
    ( SH, http ) 0.5, 0.5;
    ( SH, http_443 ) 0.5, 0.5;
    ( SH, icmp ) 0.5, 0.5;
    ( SH, imap4 ) 0.5, 0.5;
    ( SH, iso_tsap ) 0.5, 0.5;
    ( SH, ldap ) 0.5, 0.5;
    ( SH, link ) 0.5, 0.5;
    ( SH, login ) 0.5, 0.5;
    ( SH, name ) 0.5, 0.5;
    ( SH, netbios_dgm ) 0.5, 0.5;
    ( SH, netstat ) 0.5, 0.5;
    ( SH, nnsp ) 0.998073217726397, 0.001926782273603083;
    ( SH, nntp ) 0.5, 0.5;
    ( SH, ntp_u ) 0.5, 0.5;
    ( SH, other ) 0.5, 0.5;
    ( SH, pm_dump ) 0.5, 0.5;
    ( SH, pop_2 ) 0.5, 0.5;
    ( SH, pop_3 ) 0.5, 0.5;
    ( SH, printer ) 0.5, 0.5;
    ( SH, private ) 0.9999758232193801, 2.4176780619892654e-05;
    ( SH, remote_job ) 0.5, 0.5;
    ( SH, shell ) 0.5, 0.5;
    ( SH, smtp ) 0.5, 0.5;
    ( SH, sql_net ) 0.5, 0.5;
    ( SH, sunrpc ) 0.5, 0.5;
    ( SH, systat ) 0.5, 0.5;
    ( SH, telnet ) 0.5, 0.5;
    ( SH, tftp_u ) 0.5, 0.5;
    ( SH, tim_i ) 0.5, 0.5;
    ( SH, time ) 0.5, 0.5;
    ( SH, urp_i ) 0.5, 0.5;
    ( SH, uucp ) 0.998073217726397, 0.001926782273603083;

}
probability ( protocol_type | flag, service ) {
    ( OTH, IRC ) 0.3333333333333333, 0.3333333333333333, 0.3333333333333333;
    ( OTH, X11 ) 0.3333333333333333, 0.3333333333333333, 0.3333333333333333;
    ( OTH, auth ) 0.3333333333333333, 0.3333333333333333, 0.3333333333333333;
    ( OTH, bgp ) 0.3333333333333333, 0.3333333333333333, 0.3333333333333333;
    ( OTH, courier ) 0.3333333333333333, 0.3333333333333333, 0.3333333333333333;
    ( OTH, daytime ) 0.3333333333333333, 0.3333333333333333, 0.3333333333333333;
    ( OTH, domain ) 0.3333333333333333, 0.3333333333333333, 0.3333333333333333;
    ( OTH, domain_u ) 0.3333333333333333, 0.3333333333333333, 0.3333333333333333;
    ( OTH, echo ) 0.3333333333333333, 0.3333333333333333, 0.3333333333333333;
    ( OTH, eco_i ) 0.3333333333333333, 0.3333333333333333, 0.3333333333333333;
    ( OTH, ecr_i ) 0.3333333333333333, 0.3333333333333333, 0.3333333333333333;
    ( OTH, finger ) 0.3333333333333333, 0.3333333333333333, 0.3333333333333333;
    ( OTH, ftp ) 0.3333333333333333, 0.3333333333333333, 0.3333333333333333;
    ( OTH, ftp_data ) 0.3333333333333333, 0.3333333333333333, 0.3333333333333333;
    ( OTH, gopher ) 0.3333333333333333, 0.3333333333333333, 0.3333333333333333;
    ( OTH, http ) 0.3333333333333333, 0.3333333333333333, 0.3333333333333333;
    ( OTH, http_443 ) 0.3333333333333333, 0.3333333333333333, 0.3333333333333333;
    ( OTH, icmp ) 0.3333333333333333, 0.3333333333333333, 0.3333333333333333;
    ( OTH, imap4 ) 0.3333333333333333, 0.3333333333333333, 0.3333333333333333;
    ( OTH, iso_tsap ) 0.3333333333333333, 0.3333333333333333, 0.3333333333333333;
    ( OTH, ldap ) 0.3333333333333333, 0.3333333333333333, 0.3333333333333333;
    ( OTH, link ) 0.3333333333333333, 0.3333333333333333, 0.3333333333333333;
    ( OTH, login ) 0.3333333333333333, 0.3333333333333333, 0.3333333333333333;
    ( OTH, name ) 0.3333333333333333, 0.3333333333333333, 0.3333333333333333;
    ( OTH, netbios_dgm ) 0.3333333333333333, 0.3333333333333333, 0.3333333333333333;
    ( OTH, netstat ) 0.3333333333333333, 0.3333333333333333, 0.3333333333333333;
    ( OTH, nnsp ) 0.3333333333333333, 0.3333333333333333, 0.3333333333333333;
    ( OTH, nntp ) 0.3333333333333333, 0.3333333333333333, 0.3333333333333333;
    ( OTH, ntp_u ) 0.3333333333333333, 0.3333333333333333, 0.3333333333333333;
    ( OTH, other ) 0.3333333333333333, 0.3333333333333333, 0.3333333333333333;
    ( OTH, pm_dump ) 0.3333333333333333, 0.3333333333333333, 0.3333333333333333;
    ( OTH, pop_2 ) 0.3333333333333333, 0.3333333333333333, 0.3333333333333333;
    ( OTH, pop_3 ) 0.3333333333333333, 0.3333333333333333, 0.3333333333333333;
    ( OTH, printer ) 0.3333333333333333, 0.3333333333333333, 0.3333333333333333;
    ( OTH, private ) 0.0003220611916264091, 0.9993558776167474, 0.0003220611916264091;
    ( OTH, remote_job ) 0.3333333333333333, 0.3333333333333333, 0.3333333333333333;
    ( OTH, shell ) 0.3333333333333333, 0.3333333333333333, 0.3333333333333333;
    ( OTH, smtp ) 0.3333333333333333, 0.3333333333333333, 0.3333333333333333;
    ( OTH, sql_net ) 0.3333333333333333, 0.3333333333333333, 0.3333333333333333;
    ( OTH, sunrpc ) 0.3333333333333333, 0.3333333333333333, 0.3333333333333333;
    ( OTH, systat ) 0.3333333333333333, 0.3333333333333333, 0.3333333333333333;
    ( OTH, telnet ) 0.3333333333333333, 0.3333333333333333, 0.3333333333333333;
    ( OTH, tftp_u ) 0.3333333333333333, 0.3333333333333333, 0.3333333333333333;
    ( OTH, tim_i ) 0.3333333333333333, 0.3333333333333333, 0.3333333333333333;
    ( OTH, time ) 0.3333333333333333, 0.3333333333333333, 0.3333333333333333;
    ( OTH, urp_i ) 0.3333333333333333, 0.3333333333333333, 0.3333333333333333;
    ( OTH, uucp ) 0.3333333333333333, 0.3333333333333333, 0.3333333333333333;
    ( REJ, IRC ) 0.0006435006435006434, 0.9987129987129986, 0.0006435006435006434;
    ( REJ, X11 ) 0.3333333333333333, 0.3333333333333333, 0.3333333333333333;
    ( REJ, auth ) 0.0012845215157353883, 0.997430956968529, 0.0012845215157353883;
    ( REJ, bgp ) 0.0012845215157353883, 0.997430956968529, 0.0012845215157353883;
    ( REJ, courier ) 0.3333333333333333, 0.3333333333333333, 0.3333333333333333;
    ( REJ, daytime ) 0.3333333333333333, 0.3333333333333333, 0.3333333333333333;
    ( REJ, domain ) 0.3333333333333333, 0.3333333333333333, 0.3333333333333333;
    ( REJ, domain_u ) 0.3333333333333333, 0.3333333333333333, 0.3333333333333333;
    ( REJ, echo ) 0.3333333333333333, 0.3333333333333333, 0.3333333333333333;
    ( REJ, eco_i ) 0.3333333333333333, 0.3333333333333333, 0.3333333333333333;
    ( REJ, ecr_i ) 0.3333333333333333, 0.3333333333333333, 0.3333333333333333;
    ( REJ, finger ) 0.3333333333333333, 0.3333333333333333, 0.3333333333333333;
    ( REJ, ftp ) 0.0012845215157353883, 0.997430956968529, 0.0012845215157353883;
    ( REJ, ftp_data ) 0.0012845215157353883, 0.997430956968529, 0.0012845215157353883;
    ( REJ, gopher ) 0.3333333333333333, 0.3333333333333333, 0.3333333333333333;
    ( REJ, http ) 5.157164590907919e-05, 0.9998968567081818, 5.157164590907919e-05;
    ( REJ, http_443 ) 0.0012845215157353883, 0.997430956968529, 0.0012845215157353883;
    ( REJ, icmp ) 0.3333333333333333, 0.3333333333333333, 0.3333333333333333;
    ( REJ, imap4 ) 1.9837137104373102e-05, 0.9999603257257914, 1.9837137104373102e-05;
    ( REJ, iso_tsap ) 0.3333333333333333, 0.3333333333333333, 0.3333333333333333;
    ( REJ, ldap ) 0.0012845215157353883, 0.997430956968529, 0.0012845215157353883;
    ( REJ, link ) 0.0012845215157353883, 0.997430956968529, 0.0012845215157353883;
    ( REJ, login ) 0.3333333333333333, 0.3333333333333333, 0.3333333333333333;
    ( REJ, name ) 0.0012845215157353883, 0.997430956968529, 0.0012845215157353883;
    ( REJ, netbios_dgm ) 0.3333333333333333, 0.3333333333333333, 0.3333333333333333;
    ( REJ, netstat ) 0.0012845215157353883, 0.997430956968529, 0.0012845215157353883;
    ( REJ, nnsp ) 0.3333333333333333, 0.3333333333333333, 0.3333333333333333;
    ( REJ, nntp ) 0.0012845215157353883, 0.997430956968529, 0.0012845215157353883;
    ( REJ, ntp_u ) 0.3333333333333333, 0.3333333333333333, 0.3333333333333333;
    ( REJ, other ) 8.579423368375986e-07, 0.9999982841153262, 8.579423368375986e-07;
    ( REJ, pm_dump ) 0.3333333333333333, 0.3333333333333333, 0.3333333333333333;
    ( REJ, pop_2 ) 0.0012845215157353883, 0.997430956968529, 0.0012845215157353883;
    ( REJ, pop_3 ) 2.3443635639014896e-05, 0.9999531127287219, 2.3443635639014896e-05;
    ( REJ, printer ) 0.3333333333333333, 0.3333333333333333, 0.3333333333333333;
    ( REJ, private ) 4.3416628134409204e-06, 0.9999913166743732, 4.3416628134409204e-06;
    ( REJ, remote_job ) 0.3333333333333333, 0.3333333333333333, 0.3333333333333333;
    ( REJ, shell ) 0.3333333333333333, 0.3333333333333333, 0.3333333333333333;
    ( REJ, smtp ) 6.139300733646438e-05, 0.9998772139853271, 6.139300733646438e-05;
    ( REJ, sql_net ) 0.0012845215157353883, 0.997430956968529, 0.0012845215157353883;
    ( REJ, sunrpc ) 9.080672696233335e-06, 0.9999818386546074, 9.080672696233335e-06;
    ( REJ, systat ) 0.0006435006435006434, 0.9987129987129986, 0.0006435006435006434;
    ( REJ, telnet ) 1.401561339332016e-05, 0.9999719687732135, 1.401561339332016e-05;
    ( REJ, tftp_u ) 0.3333333333333333, 0.3333333333333333, 0.3333333333333333;
    ( REJ, tim_i ) 0.3333333333333333, 0.3333333333333333, 0.3333333333333333;
    ( REJ, time ) 0.3333333333333333, 0.3333333333333333, 0.3333333333333333;
    ( REJ, urp_i ) 0.3333333333333333, 0.3333333333333333, 0.3333333333333333;
    ( REJ, uucp ) 0.0012845215157353883, 0.997430956968529, 0.0012845215157353883;
    ( RSTO, IRC ) 0.0012845215157353883, 0.997430956968529, 0.0012845215157353883;
    ( RSTO, X11 ) 0.3333333333333333, 0.3333333333333333, 0.3333333333333333;
    ( RSTO, auth ) 0.3333333333333333, 0.3333333333333333, 0.3333333333333333;
    ( RSTO, bgp ) 0.3333333333333333, 0.3333333333333333, 0.3333333333333333;
    ( RSTO, courier ) 0.3333333333333333, 0.3333333333333333, 0.3333333333333333;
    ( RSTO, daytime ) 0.3333333333333333, 0.3333333333333333, 0.3333333333333333;
    ( RSTO, domain ) 0.3333333333333333, 0.3333333333333333, 0.3333333333333333;
    ( RSTO, domain_u ) 0.3333333333333333, 0.3333333333333333, 0.3333333333333333;
    ( RSTO, echo ) 0.3333333333333333, 0.3333333333333333, 0.3333333333333333;
    ( RSTO, eco_i ) 0.3333333333333333, 0.3333333333333333, 0.3333333333333333;
    ( RSTO, ecr_i ) 0.3333333333333333, 0.3333333333333333, 0.3333333333333333;
    ( RSTO, finger ) 0.3333333333333333, 0.3333333333333333, 0.3333333333333333;
    ( RSTO, ftp ) 0.3333333333333333, 0.3333333333333333, 0.3333333333333333;
    ( RSTO, ftp_data ) 0.3333333333333333, 0.3333333333333333, 0.3333333333333333;
    ( RSTO, gopher ) 0.0012845215157353883, 0.997430956968529, 0.0012845215157353883;
    ( RSTO, http ) 0.0012845215157353883, 0.997430956968529, 0.0012845215157353883;
    ( RSTO, http_443 ) 0.3333333333333333, 0.3333333333333333, 0.3333333333333333;
    ( RSTO, icmp ) 0.3333333333333333, 0.3333333333333333, 0.3333333333333333;
    ( RSTO, imap4 ) 9.412074750697667e-06, 0.9999811758504985, 9.412074750697667e-06;
    ( RSTO, iso_tsap ) 0.3333333333333333, 0.3333333333333333, 0.3333333333333333;
    ( RSTO, ldap ) 0.3333333333333333, 0.3333333333333333, 0.3333333333333333;
    ( RSTO, link ) 0.3333333333333333, 0.3333333333333333, 0.3333333333333333;
    ( RSTO, login ) 0.3333333333333333, 0.3333333333333333, 0.3333333333333333;
    ( RSTO, name ) 0.3333333333333333, 0.3333333333333333, 0.3333333333333333;
    ( RSTO, netbios_dgm ) 0.3333333333333333, 0.3333333333333333, 0.3333333333333333;
    ( RSTO, netstat ) 0.3333333333333333, 0.3333333333333333, 0.3333333333333333;
    ( RSTO, nnsp ) 0.3333333333333333, 0.3333333333333333, 0.3333333333333333;
    ( RSTO, nntp ) 0.3333333333333333, 0.3333333333333333, 0.3333333333333333;
    ( RSTO, ntp_u ) 0.3333333333333333, 0.3333333333333333, 0.3333333333333333;
    ( RSTO, other ) 0.3333333333333333, 0.3333333333333333, 0.3333333333333333;
    ( RSTO, pm_dump ) 0.3333333333333333, 0.3333333333333333, 0.3333333333333333;
    ( RSTO, pop_2 ) 0.3333333333333333, 0.3333333333333333, 0.3333333333333333;
    ( RSTO, pop_3 ) 9.343873222328117e-06, 0.9999813122535552, 9.343873222328117e-06;
    ( RSTO, printer ) 0.0012845215157353883, 0.997430956968529, 0.0012845215157353883;
    ( RSTO, private ) 0.3333333333333333, 0.3333333333333333, 0.3333333333333333;
    ( RSTO, remote_job ) 0.3333333333333333, 0.3333333333333333, 0.3333333333333333;
    ( RSTO, shell ) 0.3333333333333333, 0.3333333333333333, 0.3333333333333333;
    ( RSTO, smtp ) 0.0012845215157353883, 0.997430956968529, 0.0012845215157353883;
    ( RSTO, sql_net ) 0.3333333333333333, 0.3333333333333333, 0.3333333333333333;
    ( RSTO, sunrpc ) 0.0012845215157353883, 0.997430956968529, 0.0012845215157353883;
    ( RSTO, systat ) 0.3333333333333333, 0.3333333333333333, 0.3333333333333333;
    ( RSTO, telnet ) 1.2164562197406517e-05, 0.9999756708756052, 1.2164562197406517e-05;
    ( RSTO, tftp_u ) 0.3333333333333333, 0.3333333333333333, 0.3333333333333333;
    ( RSTO, tim_i ) 0.3333333333333333, 0.3333333333333333, 0.3333333333333333;
    ( RSTO, time ) 0.0012845215157353883, 0.997430956968529, 0.0012845215157353883;
    ( RSTO, urp_i ) 0.3333333333333333, 0.3333333333333333, 0.3333333333333333;
    ( RSTO, uucp ) 0.3333333333333333, 0.3333333333333333, 0.3333333333333333;
    ( RSTOS0, IRC ) 0.3333333333333333, 0.3333333333333333, 0.3333333333333333;
    ( RSTOS0, X11 ) 0.3333333333333333, 0.3333333333333333, 0.3333333333333333;
    ( RSTOS0, auth ) 0.3333333333333333, 0.3333333333333333, 0.3333333333333333;
    ( RSTOS0, bgp ) 0.3333333333333333, 0.3333333333333333, 0.3333333333333333;
    ( RSTOS0, courier ) 0.3333333333333333, 0.3333333333333333, 0.3333333333333333;
    ( RSTOS0, daytime ) 0.3333333333333333, 0.3333333333333333, 0.3333333333333333;
    ( RSTOS0, domain ) 0.3333333333333333, 0.3333333333333333, 0.3333333333333333;
    ( RSTOS0, domain_u ) 0.3333333333333333, 0.3333333333333333, 0.3333333333333333;
    ( RSTOS0, echo ) 0.3333333333333333, 0.3333333333333333, 0.3333333333333333;
    ( RSTOS0, eco_i ) 0.3333333333333333, 0.3333333333333333, 0.3333333333333333;
    ( RSTOS0, ecr_i ) 0.3333333333333333, 0.3333333333333333, 0.3333333333333333;
    ( RSTOS0, finger ) 0.3333333333333333, 0.3333333333333333, 0.3333333333333333;
    ( RSTOS0, ftp ) 0.3333333333333333, 0.3333333333333333, 0.3333333333333333;
    ( RSTOS0, ftp_data ) 0.3333333333333333, 0.3333333333333333, 0.3333333333333333;
    ( RSTOS0, gopher ) 0.3333333333333333, 0.3333333333333333, 0.3333333333333333;
    ( RSTOS0, http ) 0.3333333333333333, 0.3333333333333333, 0.3333333333333333;
    ( RSTOS0, http_443 ) 0.3333333333333333, 0.3333333333333333, 0.3333333333333333;
    ( RSTOS0, icmp ) 0.3333333333333333, 0.3333333333333333, 0.3333333333333333;
    ( RSTOS0, imap4 ) 0.3333333333333333, 0.3333333333333333, 0.3333333333333333;
    ( RSTOS0, iso_tsap ) 0.3333333333333333, 0.3333333333333333, 0.3333333333333333;
    ( RSTOS0, ldap ) 0.3333333333333333, 0.3333333333333333, 0.3333333333333333;
    ( RSTOS0, link ) 0.3333333333333333, 0.3333333333333333, 0.3333333333333333;
    ( RSTOS0, login ) 0.3333333333333333, 0.3333333333333333, 0.3333333333333333;
    ( RSTOS0, name ) 0.3333333333333333, 0.3333333333333333, 0.3333333333333333;
    ( RSTOS0, netbios_dgm ) 0.3333333333333333, 0.3333333333333333, 0.3333333333333333;
    ( RSTOS0, netstat ) 0.3333333333333333, 0.3333333333333333, 0.3333333333333333;
    ( RSTOS0, nnsp ) 0.3333333333333333, 0.3333333333333333, 0.3333333333333333;
    ( RSTOS0, nntp ) 0.3333333333333333, 0.3333333333333333, 0.3333333333333333;
    ( RSTOS0, ntp_u ) 0.3333333333333333, 0.3333333333333333, 0.3333333333333333;
    ( RSTOS0, other ) 0.0012845215157353883, 0.997430956968529, 0.0012845215157353883;
    ( RSTOS0, pm_dump ) 0.3333333333333333, 0.3333333333333333, 0.3333333333333333;
    ( RSTOS0, pop_2 ) 0.3333333333333333, 0.3333333333333333, 0.3333333333333333;
    ( RSTOS0, pop_3 ) 0.3333333333333333, 0.3333333333333333, 0.3333333333333333;
    ( RSTOS0, printer ) 0.3333333333333333, 0.3333333333333333, 0.3333333333333333;
    ( RSTOS0, private ) 0.0012845215157353883, 0.997430956968529, 0.0012845215157353883;
    ( RSTOS0, remote_job ) 0.3333333333333333, 0.3333333333333333, 0.3333333333333333;
    ( RSTOS0, shell ) 0.3333333333333333, 0.3333333333333333, 0.3333333333333333;
    ( RSTOS0, smtp ) 0.3333333333333333, 0.3333333333333333, 0.3333333333333333;
    ( RSTOS0, sql_net ) 0.3333333333333333, 0.3333333333333333, 0.3333333333333333;
    ( RSTOS0, sunrpc ) 0.3333333333333333, 0.3333333333333333, 0.3333333333333333;
    ( RSTOS0, systat ) 0.3333333333333333, 0.3333333333333333, 0.3333333333333333;
    ( RSTOS0, telnet ) 0.3333333333333333, 0.3333333333333333, 0.3333333333333333;
    ( RSTOS0, tftp_u ) 0.3333333333333333, 0.3333333333333333, 0.3333333333333333;
    ( RSTOS0, tim_i ) 0.3333333333333333, 0.3333333333333333, 0.3333333333333333;
    ( RSTOS0, time ) 0.3333333333333333, 0.3333333333333333, 0.3333333333333333;
    ( RSTOS0, urp_i ) 0.3333333333333333, 0.3333333333333333, 0.3333333333333333;
    ( RSTOS0, uucp ) 0.3333333333333333, 0.3333333333333333, 0.3333333333333333;
    ( RSTR, IRC ) 0.00011718521122634324, 0.9997656295775473, 0.00011718521122634324;
    ( RSTR, X11 ) 0.3333333333333333, 0.3333333333333333, 0.3333333333333333;
    ( RSTR, auth ) 0.3333333333333333, 0.3333333333333333, 0.3333333333333333;
    ( RSTR, bgp ) 0.3333333333333333, 0.3333333333333333, 0.3333333333333333;
    ( RSTR, courier ) 0.3333333333333333, 0.3333333333333333, 0.3333333333333333;
    ( RSTR, daytime ) 0.0012845215157353883, 0.997430956968529, 0.0012845215157353883;
    ( RSTR, domain ) 0.3333333333333333, 0.3333333333333333, 0.3333333333333333;
    ( RSTR, domain_u ) 0.3333333333333333, 0.3333333333333333, 0.3333333333333333;
    ( RSTR, echo ) 0.0012845215157353883, 0.997430956968529, 0.0012845215157353883;
    ( RSTR, eco_i ) 0.3333333333333333, 0.3333333333333333, 0.3333333333333333;
    ( RSTR, ecr_i ) 0.3333333333333333, 0.3333333333333333, 0.3333333333333333;
    ( RSTR, finger ) 0.3333333333333333, 0.3333333333333333, 0.3333333333333333;
    ( RSTR, ftp ) 0.0006435006435006434, 0.9987129987129986, 0.0006435006435006434;
    ( RSTR, ftp_data ) 0.3333333333333333, 0.3333333333333333, 0.3333333333333333;
    ( RSTR, gopher ) 0.3333333333333333, 0.3333333333333333, 0.3333333333333333;
    ( RSTR, http ) 0.0012845215157353883, 0.997430956968529, 0.0012845215157353883;
    ( RSTR, http_443 ) 0.3333333333333333, 0.3333333333333333, 0.3333333333333333;
    ( RSTR, icmp ) 0.3333333333333333, 0.3333333333333333, 0.3333333333333333;
    ( RSTR, imap4 ) 0.3333333333333333, 0.3333333333333333, 0.3333333333333333;
    ( RSTR, iso_tsap ) 0.0012845215157353883, 0.997430956968529, 0.0012845215157353883;
    ( RSTR, ldap ) 0.3333333333333333, 0.3333333333333333, 0.3333333333333333;
    ( RSTR, link ) 0.0006435006435006434, 0.9987129987129986, 0.0006435006435006434;
    ( RSTR, login ) 0.3333333333333333, 0.3333333333333333, 0.3333333333333333;
    ( RSTR, name ) 0.3333333333333333, 0.3333333333333333, 0.3333333333333333;
    ( RSTR, netbios_dgm ) 0.0012845215157353883, 0.997430956968529, 0.0012845215157353883;
    ( RSTR, netstat ) 0.3333333333333333, 0.3333333333333333, 0.3333333333333333;
    ( RSTR, nnsp ) 0.0012845215157353883, 0.997430956968529, 0.0012845215157353883;
    ( RSTR, nntp ) 0.3333333333333333, 0.3333333333333333, 0.3333333333333333;
    ( RSTR, ntp_u ) 0.3333333333333333, 0.3333333333333333, 0.3333333333333333;
    ( RSTR, other ) 1.572475390760135e-05, 0.9999685504921849, 1.572475390760135e-05;
    ( RSTR, pm_dump ) 0.3333333333333333, 0.3333333333333333, 0.3333333333333333;
    ( RSTR, pop_2 ) 0.3333333333333333, 0.3333333333333333, 0.3333333333333333;
    ( RSTR, pop_3 ) 0.3333333333333333, 0.3333333333333333, 0.3333333333333333;
    ( RSTR, printer ) 0.3333333333333333, 0.3333333333333333, 0.3333333333333333;
    ( RSTR, private ) 6.578904086157327e-06, 0.9999868421918275, 6.578904086157327e-06;
    ( RSTR, remote_job ) 0.0012845215157353883, 0.997430956968529, 0.0012845215157353883;
    ( RSTR, shell ) 0.3333333333333333, 0.3333333333333333, 0.3333333333333333;
    ( RSTR, smtp ) 0.3333333333333333, 0.3333333333333333, 0.3333333333333333;
    ( RSTR, sql_net ) 0.3333333333333333, 0.3333333333333333, 0.3333333333333333;
    ( RSTR, sunrpc ) 0.3333333333333333, 0.3333333333333333, 0.3333333333333333;
    ( RSTR, systat ) 0.3333333333333333, 0.3333333333333333, 0.3333333333333333;
    ( RSTR, telnet ) 0.3333333333333333, 0.3333333333333333, 0.3333333333333333;
    ( RSTR, tftp_u ) 0.3333333333333333, 0.3333333333333333, 0.3333333333333333;
    ( RSTR, tim_i ) 0.3333333333333333, 0.3333333333333333, 0.3333333333333333;
    ( RSTR, time ) 0.3333333333333333, 0.3333333333333333, 0.3333333333333333;
    ( RSTR, urp_i ) 0.3333333333333333, 0.3333333333333333, 0.3333333333333333;
    ( RSTR, uucp ) 0.3333333333333333, 0.3333333333333333, 0.3333333333333333;
    ( S0, IRC ) 0.3333333333333333, 0.3333333333333333, 0.3333333333333333;
    ( S0, X11 ) 0.3333333333333333, 0.3333333333333333, 0.3333333333333333;
    ( S0, auth ) 0.3333333333333333, 0.3333333333333333, 0.3333333333333333;
    ( S0, bgp ) 0.3333333333333333, 0.3333333333333333, 0.3333333333333333;
    ( S0, courier ) 0.3333333333333333, 0.3333333333333333, 0.3333333333333333;
    ( S0, daytime ) 0.3333333333333333, 0.3333333333333333, 0.3333333333333333;
    ( S0, domain ) 0.3333333333333333, 0.3333333333333333, 0.3333333333333333;
    ( S0, domain_u ) 0.3333333333333333, 0.3333333333333333, 0.3333333333333333;
    ( S0, echo ) 0.3333333333333333, 0.3333333333333333, 0.3333333333333333;
    ( S0, eco_i ) 0.3333333333333333, 0.3333333333333333, 0.3333333333333333;
    ( S0, ecr_i ) 0.3333333333333333, 0.3333333333333333, 0.3333333333333333;
    ( S0, finger ) 0.3333333333333333, 0.3333333333333333, 0.3333333333333333;
    ( S0, ftp ) 0.3333333333333333, 0.3333333333333333, 0.3333333333333333;
    ( S0, ftp_data ) 0.3333333333333333, 0.3333333333333333, 0.3333333333333333;
    ( S0, gopher ) 0.3333333333333333, 0.3333333333333333, 0.3333333333333333;
    ( S0, http ) 0.3333333333333333, 0.3333333333333333, 0.3333333333333333;
    ( S0, http_443 ) 0.3333333333333333, 0.3333333333333333, 0.3333333333333333;
    ( S0, icmp ) 0.3333333333333333, 0.3333333333333333, 0.3333333333333333;
    ( S0, imap4 ) 1.953659203688509e-05, 0.9999609268159263, 1.953659203688509e-05;
    ( S0, iso_tsap ) 0.3333333333333333, 0.3333333333333333, 0.3333333333333333;
    ( S0, ldap ) 0.3333333333333333, 0.3333333333333333, 0.3333333333333333;
    ( S0, link ) 0.3333333333333333, 0.3333333333333333, 0.3333333333333333;
    ( S0, login ) 0.3333333333333333, 0.3333333333333333, 0.3333333333333333;
    ( S0, name ) 0.3333333333333333, 0.3333333333333333, 0.3333333333333333;
    ( S0, netbios_dgm ) 0.3333333333333333, 0.3333333333333333, 0.3333333333333333;
    ( S0, netstat ) 0.3333333333333333, 0.3333333333333333, 0.3333333333333333;
    ( S0, nnsp ) 0.3333333333333333, 0.3333333333333333, 0.3333333333333333;
    ( S0, nntp ) 0.3333333333333333, 0.3333333333333333, 0.3333333333333333;
    ( S0, ntp_u ) 0.3333333333333333, 0.3333333333333333, 0.3333333333333333;
    ( S0, other ) 1.315754848556617e-05, 0.999973684903029, 1.315754848556617e-05;
    ( S0, pm_dump ) 0.3333333333333333, 0.3333333333333333, 0.3333333333333333;
    ( S0, pop_2 ) 0.3333333333333333, 0.3333333333333333, 0.3333333333333333;
    ( S0, pop_3 ) 2.0796938690624737e-05, 0.9999584061226187, 2.0796938690624737e-05;
    ( S0, printer ) 0.3333333333333333, 0.3333333333333333, 0.3333333333333333;
    ( S0, private ) 9.208103130755066e-05, 0.9998158379373849, 9.208103130755066e-05;
    ( S0, remote_job ) 0.0012845215157353883, 0.997430956968529, 0.0012845215157353883;
    ( S0, shell ) 0.3333333333333333, 0.3333333333333333, 0.3333333333333333;
    ( S0, smtp ) 0.3333333333333333, 0.3333333333333333, 0.3333333333333333;
    ( S0, sql_net ) 0.3333333333333333, 0.3333333333333333, 0.3333333333333333;
    ( S0, sunrpc ) 0.3333333333333333, 0.3333333333333333, 0.3333333333333333;
    ( S0, systat ) 0.3333333333333333, 0.3333333333333333, 0.3333333333333333;
    ( S0, telnet ) 2.4328236567772382e-05, 0.9999513435268643, 2.4328236567772382e-05;
    ( S0, tftp_u ) 0.3333333333333333, 0.3333333333333333, 0.3333333333333333;
    ( S0, tim_i ) 0.3333333333333333, 0.3333333333333333, 0.3333333333333333;
    ( S0, time ) 0.3333333333333333, 0.3333333333333333, 0.3333333333333333;
    ( S0, urp_i ) 0.3333333333333333, 0.3333333333333333, 0.3333333333333333;
    ( S0, uucp ) 0.3333333333333333, 0.3333333333333333, 0.3333333333333333;
    ( S1, IRC ) 0.3333333333333333, 0.3333333333333333, 0.3333333333333333;
    ( S1, X11 ) 0.0006435006435006434, 0.9987129987129986, 0.0006435006435006434;
    ( S1, auth ) 0.3333333333333333, 0.3333333333333333, 0.3333333333333333;
    ( S1, bgp ) 0.3333333333333333, 0.3333333333333333, 0.3333333333333333;
    ( S1, courier ) 0.3333333333333333, 0.3333333333333333, 0.3333333333333333;
    ( S1, daytime ) 0.3333333333333333, 0.3333333333333333, 0.3333333333333333;
    ( S1, domain ) 0.3333333333333333, 0.3333333333333333, 0.3333333333333333;
    ( S1, domain_u ) 0.3333333333333333, 0.3333333333333333, 0.3333333333333333;
    ( S1, echo ) 0.3333333333333333, 0.3333333333333333, 0.3333333333333333;
    ( S1, eco_i ) 0.3333333333333333, 0.3333333333333333, 0.3333333333333333;
    ( S1, ecr_i ) 0.3333333333333333, 0.3333333333333333, 0.3333333333333333;
    ( S1, finger ) 0.3333333333333333, 0.3333333333333333, 0.3333333333333333;
    ( S1, ftp ) 0.3333333333333333, 0.3333333333333333, 0.3333333333333333;
    ( S1, ftp_data ) 0.0012845215157353883, 0.997430956968529, 0.0012845215157353883;
    ( S1, gopher ) 0.3333333333333333, 0.3333333333333333, 0.3333333333333333;
    ( S1, http ) 9.916208042044724e-05, 0.9998016758391591, 9.916208042044724e-05;
    ( S1, http_443 ) 0.3333333333333333, 0.3333333333333333, 0.3333333333333333;
    ( S1, icmp ) 0.3333333333333333, 0.3333333333333333, 0.3333333333333333;
    ( S1, imap4 ) 0.3333333333333333, 0.3333333333333333, 0.3333333333333333;
    ( S1, iso_tsap ) 0.3333333333333333, 0.3333333333333333, 0.3333333333333333;
    ( S1, ldap ) 0.3333333333333333, 0.3333333333333333, 0.3333333333333333;
    ( S1, link ) 0.3333333333333333, 0.3333333333333333, 0.3333333333333333;
    ( S1, login ) 0.3333333333333333, 0.3333333333333333, 0.3333333333333333;
    ( S1, name ) 0.3333333333333333, 0.3333333333333333, 0.3333333333333333;
    ( S1, netbios_dgm ) 0.3333333333333333, 0.3333333333333333, 0.3333333333333333;
    ( S1, netstat ) 0.3333333333333333, 0.3333333333333333, 0.3333333333333333;
    ( S1, nnsp ) 0.3333333333333333, 0.3333333333333333, 0.3333333333333333;
    ( S1, nntp ) 0.3333333333333333, 0.3333333333333333, 0.3333333333333333;
    ( S1, ntp_u ) 0.3333333333333333, 0.3333333333333333, 0.3333333333333333;
    ( S1, other ) 0.3333333333333333, 0.3333333333333333, 0.3333333333333333;
    ( S1, pm_dump ) 0.3333333333333333, 0.3333333333333333, 0.3333333333333333;
    ( S1, pop_2 ) 0.3333333333333333, 0.3333333333333333, 0.3333333333333333;
    ( S1, pop_3 ) 0.3333333333333333, 0.3333333333333333, 0.3333333333333333;
    ( S1, printer ) 0.3333333333333333, 0.3333333333333333, 0.3333333333333333;
    ( S1, private ) 0.0012845215157353883, 0.997430956968529, 0.0012845215157353883;
    ( S1, remote_job ) 0.3333333333333333, 0.3333333333333333, 0.3333333333333333;
    ( S1, shell ) 0.3333333333333333, 0.3333333333333333, 0.3333333333333333;
    ( S1, smtp ) 0.3333333333333333, 0.3333333333333333, 0.3333333333333333;
    ( S1, sql_net ) 0.3333333333333333, 0.3333333333333333, 0.3333333333333333;
    ( S1, sunrpc ) 0.3333333333333333, 0.3333333333333333, 0.3333333333333333;
    ( S1, systat ) 0.3333333333333333, 0.3333333333333333, 0.3333333333333333;
    ( S1, telnet ) 0.0003220611916264091, 0.9993558776167474, 0.0003220611916264091;
    ( S1, tftp_u ) 0.3333333333333333, 0.3333333333333333, 0.3333333333333333;
    ( S1, tim_i ) 0.3333333333333333, 0.3333333333333333, 0.3333333333333333;
    ( S1, time ) 0.3333333333333333, 0.3333333333333333, 0.3333333333333333;
    ( S1, urp_i ) 0.3333333333333333, 0.3333333333333333, 0.3333333333333333;
    ( S1, uucp ) 0.3333333333333333, 0.3333333333333333, 0.3333333333333333;
    ( S2, IRC ) 0.3333333333333333, 0.3333333333333333, 0.3333333333333333;
    ( S2, X11 ) 0.3333333333333333, 0.3333333333333333, 0.3333333333333333;
    ( S2, auth ) 0.3333333333333333, 0.3333333333333333, 0.3333333333333333;
    ( S2, bgp ) 0.3333333333333333, 0.3333333333333333, 0.3333333333333333;
    ( S2, courier ) 0.3333333333333333, 0.3333333333333333, 0.3333333333333333;
    ( S2, daytime ) 0.3333333333333333, 0.3333333333333333, 0.3333333333333333;
    ( S2, domain ) 0.3333333333333333, 0.3333333333333333, 0.3333333333333333;
    ( S2, domain_u ) 0.3333333333333333, 0.3333333333333333, 0.3333333333333333;
    ( S2, echo ) 0.3333333333333333, 0.3333333333333333, 0.3333333333333333;
    ( S2, eco_i ) 0.3333333333333333, 0.3333333333333333, 0.3333333333333333;
    ( S2, ecr_i ) 0.3333333333333333, 0.3333333333333333, 0.3333333333333333;
    ( S2, finger ) 0.0012845215157353883, 0.997430956968529, 0.0012845215157353883;
    ( S2, ftp ) 0.3333333333333333, 0.3333333333333333, 0.3333333333333333;
    ( S2, ftp_data ) 0.3333333333333333, 0.3333333333333333, 0.3333333333333333;
    ( S2, gopher ) 0.3333333333333333, 0.3333333333333333, 0.3333333333333333;
    ( S2, http ) 0.0001432151808091658, 0.9997135696383818, 0.0001432151808091658;
    ( S2, http_443 ) 0.3333333333333333, 0.3333333333333333, 0.3333333333333333;
    ( S2, icmp ) 0.3333333333333333, 0.3333333333333333, 0.3333333333333333;
    ( S2, imap4 ) 0.3333333333333333, 0.3333333333333333, 0.3333333333333333;
    ( S2, iso_tsap ) 0.3333333333333333, 0.3333333333333333, 0.3333333333333333;
    ( S2, ldap ) 0.3333333333333333, 0.3333333333333333, 0.3333333333333333;
    ( S2, link ) 0.3333333333333333, 0.3333333333333333, 0.3333333333333333;
    ( S2, login ) 0.3333333333333333, 0.3333333333333333, 0.3333333333333333;
    ( S2, name ) 0.3333333333333333, 0.3333333333333333, 0.3333333333333333;
    ( S2, netbios_dgm ) 0.3333333333333333, 0.3333333333333333, 0.3333333333333333;
    ( S2, netstat ) 0.3333333333333333, 0.3333333333333333, 0.3333333333333333;
    ( S2, nnsp ) 0.3333333333333333, 0.3333333333333333, 0.3333333333333333;
    ( S2, nntp ) 0.3333333333333333, 0.3333333333333333, 0.3333333333333333;
    ( S2, ntp_u ) 0.3333333333333333, 0.3333333333333333, 0.3333333333333333;
    ( S2, other ) 0.3333333333333333, 0.3333333333333333, 0.3333333333333333;
    ( S2, pm_dump ) 0.3333333333333333, 0.3333333333333333, 0.3333333333333333;
    ( S2, pop_2 ) 0.3333333333333333, 0.3333333333333333, 0.3333333333333333;
    ( S2, pop_3 ) 0.3333333333333333, 0.3333333333333333, 0.3333333333333333;
    ( S2, printer ) 0.3333333333333333, 0.3333333333333333, 0.3333333333333333;
    ( S2, private ) 0.0012845215157353883, 0.997430956968529, 0.0012845215157353883;
    ( S2, remote_job ) 0.3333333333333333, 0.3333333333333333, 0.3333333333333333;
    ( S2, shell ) 0.3333333333333333, 0.3333333333333333, 0.3333333333333333;
    ( S2, smtp ) 0.00042927666881304995, 0.9991414466623738, 0.00042927666881304995;
    ( S2, sql_net ) 0.3333333333333333, 0.3333333333333333, 0.3333333333333333;
    ( S2, sunrpc ) 0.3333333333333333, 0.3333333333333333, 0.3333333333333333;
    ( S2, systat ) 0.3333333333333333, 0.3333333333333333, 0.3333333333333333;
    ( S2, telnet ) 0.3333333333333333, 0.3333333333333333, 0.3333333333333333;
    ( S2, tftp_u ) 0.3333333333333333, 0.3333333333333333, 0.3333333333333333;
    ( S2, tim_i ) 0.3333333333333333, 0.3333333333333333, 0.3333333333333333;
    ( S2, time ) 0.3333333333333333, 0.3333333333333333, 0.3333333333333333;
    ( S2, urp_i ) 0.3333333333333333, 0.3333333333333333, 0.3333333333333333;
    ( S2, uucp ) 0.3333333333333333, 0.3333333333333333, 0.3333333333333333;
    ( S3, IRC ) 0.3333333333333333, 0.3333333333333333, 0.3333333333333333;
    ( S3, X11 ) 0.0012845215157353883, 0.997430956968529, 0.0012845215157353883;
    ( S3, auth ) 0.3333333333333333, 0.3333333333333333, 0.3333333333333333;
    ( S3, bgp ) 0.3333333333333333, 0.3333333333333333, 0.3333333333333333;
    ( S3, courier ) 0.3333333333333333, 0.3333333333333333, 0.3333333333333333;
    ( S3, daytime ) 0.3333333333333333, 0.3333333333333333, 0.3333333333333333;
    ( S3, domain ) 0.3333333333333333, 0.3333333333333333, 0.3333333333333333;
    ( S3, domain_u ) 0.3333333333333333, 0.3333333333333333, 0.3333333333333333;
    ( S3, echo ) 0.3333333333333333, 0.3333333333333333, 0.3333333333333333;
    ( S3, eco_i ) 0.3333333333333333, 0.3333333333333333, 0.3333333333333333;
    ( S3, ecr_i ) 0.3333333333333333, 0.3333333333333333, 0.3333333333333333;
    ( S3, finger ) 0.3333333333333333, 0.3333333333333333, 0.3333333333333333;
    ( S3, ftp ) 0.0012845215157353883, 0.997430956968529, 0.0012845215157353883;
    ( S3, ftp_data ) 0.3333333333333333, 0.3333333333333333, 0.3333333333333333;
    ( S3, gopher ) 0.3333333333333333, 0.3333333333333333, 0.3333333333333333;
    ( S3, http ) 0.0006435006435006434, 0.9987129987129986, 0.0006435006435006434;
    ( S3, http_443 ) 0.3333333333333333, 0.3333333333333333, 0.3333333333333333;
    ( S3, icmp ) 0.3333333333333333, 0.3333333333333333, 0.3333333333333333;
    ( S3, imap4 ) 0.3333333333333333, 0.3333333333333333, 0.3333333333333333;
    ( S3, iso_tsap ) 0.3333333333333333, 0.3333333333333333, 0.3333333333333333;
    ( S3, ldap ) 0.3333333333333333, 0.3333333333333333, 0.3333333333333333;
    ( S3, link ) 0.3333333333333333, 0.3333333333333333, 0.3333333333333333;
    ( S3, login ) 0.3333333333333333, 0.3333333333333333, 0.3333333333333333;
    ( S3, name ) 0.3333333333333333, 0.3333333333333333, 0.3333333333333333;
    ( S3, netbios_dgm ) 0.3333333333333333, 0.3333333333333333, 0.3333333333333333;
    ( S3, netstat ) 0.3333333333333333, 0.3333333333333333, 0.3333333333333333;
    ( S3, nnsp ) 0.3333333333333333, 0.3333333333333333, 0.3333333333333333;
    ( S3, nntp ) 0.3333333333333333, 0.3333333333333333, 0.3333333333333333;
    ( S3, ntp_u ) 0.3333333333333333, 0.3333333333333333, 0.3333333333333333;
    ( S3, other ) 0.3333333333333333, 0.3333333333333333, 0.3333333333333333;
    ( S3, pm_dump ) 0.3333333333333333, 0.3333333333333333, 0.3333333333333333;
    ( S3, pop_2 ) 0.3333333333333333, 0.3333333333333333, 0.3333333333333333;
    ( S3, pop_3 ) 0.3333333333333333, 0.3333333333333333, 0.3333333333333333;
    ( S3, printer ) 0.3333333333333333, 0.3333333333333333, 0.3333333333333333;
    ( S3, private ) 0.3333333333333333, 0.3333333333333333, 0.3333333333333333;
    ( S3, remote_job ) 0.3333333333333333, 0.3333333333333333, 0.3333333333333333;
    ( S3, shell ) 0.3333333333333333, 0.3333333333333333, 0.3333333333333333;
    ( S3, smtp ) 0.3333333333333333, 0.3333333333333333, 0.3333333333333333;
    ( S3, sql_net ) 0.3333333333333333, 0.3333333333333333, 0.3333333333333333;
    ( S3, sunrpc ) 0.3333333333333333, 0.3333333333333333, 0.3333333333333333;
    ( S3, systat ) 0.3333333333333333, 0.3333333333333333, 0.3333333333333333;
    ( S3, telnet ) 0.3333333333333333, 0.3333333333333333, 0.3333333333333333;
    ( S3, tftp_u ) 0.3333333333333333, 0.3333333333333333, 0.3333333333333333;
    ( S3, tim_i ) 0.3333333333333333, 0.3333333333333333, 0.3333333333333333;
    ( S3, time ) 0.3333333333333333, 0.3333333333333333, 0.3333333333333333;
    ( S3, urp_i ) 0.3333333333333333, 0.3333333333333333, 0.3333333333333333;
    ( S3, uucp ) 0.3333333333333333, 0.3333333333333333, 0.3333333333333333;
    ( SF, IRC ) 0.0001432151808091658, 0.9997135696383818, 0.0001432151808091658;
    ( SF, X11 ) 0.0006435006435006434, 0.9987129987129986, 0.0006435006435006434;
    ( SF, auth ) 1.465265872492564e-05, 0.9999706946825503, 1.465265872492564e-05;
    ( SF, bgp ) 0.3333333333333333, 0.3333333333333333, 0.3333333333333333;
    ( SF, courier ) 0.3333333333333333, 0.3333333333333333, 0.3333333333333333;
    ( SF, daytime ) 0.3333333333333333, 0.3333333333333333, 0.3333333333333333;
    ( SF, domain ) 0.3333333333333333, 0.3333333333333333, 0.3333333333333333;
    ( SF, domain_u ) 4.080661622152769e-07, 4.080661622152769e-07, 0.9999991838676755;
    ( SF, echo ) 0.3333333333333333, 0.3333333333333333, 0.3333333333333333;
    ( SF, eco_i ) 0.9999952852594817, 2.3573702591810735e-06, 2.3573702591810735e-06;
    ( SF, ecr_i ) 0.9999856726340145, 7.1636829927002056e-06, 7.1636829927002056e-06;
    ( SF, finger ) 7.2441720635748525e-06, 0.9999855116558727, 7.2441720635748525e-06;
    ( SF, ftp ) 1.0745409023994499e-05, 0.9999785091819521, 1.0745409023994499e-05;
    ( SF, ftp_data ) 1.2327780900815602e-06, 0.9999975344438197, 1.2327780900815602e-06;
    ( SF, gopher ) 0.3333333333333333, 0.3333333333333333, 0.3333333333333333;
    ( SF, http ) 3.289600561074271e-08, 0.9999999342079886, 3.289600561074271e-08;
    ( SF, http_443 ) 0.3333333333333333, 0.3333333333333333, 0.3333333333333333;
    ( SF, icmp ) 0.0006435006435006434, 0.9987129987129986, 0.0006435006435006434;
    ( SF, imap4 ) 8.594387864724336e-05, 0.9998281122427055, 8.594387864724336e-05;
    ( SF, iso_tsap ) 0.3333333333333333, 0.3333333333333333, 0.3333333333333333;
    ( SF, ldap ) 0.3333333333333333, 0.3333333333333333, 0.3333333333333333;
    ( SF, link ) 0.3333333333333333, 0.3333333333333333, 0.3333333333333333;
    ( SF, login ) 0.0006435006435006434, 0.9987129987129986, 0.0006435006435006434;
    ( SF, name ) 0.3333333333333333, 0.3333333333333333, 0.3333333333333333;
    ( SF, netbios_dgm ) 0.3333333333333333, 0.3333333333333333, 0.3333333333333333;
    ( SF, netstat ) 0.3333333333333333, 0.3333333333333333, 0.3333333333333333;
    ( SF, nnsp ) 0.3333333333333333, 0.3333333333333333, 0.3333333333333333;
    ( SF, nntp ) 0.0012845215157353883, 0.997430956968529, 0.0012845215157353883;
    ( SF, ntp_u ) 1.6117853746595102e-05, 1.6117853746595102e-05, 0.9999677642925068;
    ( SF, other ) 4.655135895054617e-06, 0.02527506034219904, 0.9747202845219058;
    ( SF, pm_dump ) 8.057368463459835e-05, 0.9998388526307308, 8.057368463459835e-05;
    ( SF, pop_2 ) 0.3333333333333333, 0.3333333333333333, 0.3333333333333333;
    ( SF, pop_3 ) 4.4459264199177505e-05, 0.9999110814716017, 4.4459264199177505e-05;
    ( SF, printer ) 0.3333333333333333, 0.3333333333333333, 0.3333333333333333;
    ( SF, private ) 9.898597284626693e-08, 7.686260791512628e-05, 0.999923038406112;
    ( SF, remote_job ) 0.3333333333333333, 0.3333333333333333, 0.3333333333333333;
    ( SF, shell ) 0.0012845215157353883, 0.997430956968529, 0.0012845215157353883;
    ( SF, smtp ) 4.0499029035778864e-07, 0.9999991900194192, 4.0499029035778864e-07;
    ( SF, sql_net ) 0.3333333333333333, 0.3333333333333333, 0.3333333333333333;
    ( SF, sunrpc ) 0.3333333333333333, 0.3333333333333333, 0.3333333333333333;
    ( SF, systat ) 0.3333333333333333, 0.3333333333333333, 0.3333333333333333;
    ( SF, telnet ) 7.2441720635748525e-06, 0.9999855116558727, 7.2441720635748525e-06;
    ( SF, tftp_u ) 0.0012845215157353885, 0.0012845215157353885, 0.9974309569685292;
    ( SF, tim_i ) 0.997430956968529, 0.0012845215157353883, 0.0012845215157353883;
    ( SF, time ) 4.6046875719482436e-05, 0.9999079062485611, 4.6046875719482436e-05;
    ( SF, urp_i ) 0.999956291318363, 2.185434081844506e-05, 2.185434081844506e-05;
    ( SF, uucp ) 0.0012845215157353883, 0.997430956968529, 0.0012845215157353883;
    ( SH, IRC ) 0.3333333333333333, 0.3333333333333333, 0.3333333333333333;
    ( SH, X11 ) 0.3333333333333333, 0.3333333333333333, 0.3333333333333333;
    ( SH, auth ) 0.3333333333333333, 0.3333333333333333, 0.3333333333333333;
    ( SH, bgp ) 0.3333333333333333, 0.3333333333333333, 0.3333333333333333;
    ( SH, courier ) 0.0012845215157353883, 0.997430956968529, 0.0012845215157353883;
    ( SH, daytime ) 0.3333333333333333, 0.3333333333333333, 0.3333333333333333;
    ( SH, domain ) 0.0012845215157353883, 0.997430956968529, 0.0012845215157353883;
    ( SH, domain_u ) 0.3333333333333333, 0.3333333333333333, 0.3333333333333333;
    ( SH, echo ) 0.3333333333333333, 0.3333333333333333, 0.3333333333333333;
    ( SH, eco_i ) 0.3333333333333333, 0.3333333333333333, 0.3333333333333333;
    ( SH, ecr_i ) 0.3333333333333333, 0.3333333333333333, 0.3333333333333333;
    ( SH, finger ) 0.3333333333333333, 0.3333333333333333, 0.3333333333333333;
    ( SH, ftp ) 0.3333333333333333, 0.3333333333333333, 0.3333333333333333;
    ( SH, ftp_data ) 0.3333333333333333, 0.3333333333333333, 0.3333333333333333;
    ( SH, gopher ) 0.3333333333333333, 0.3333333333333333, 0.3333333333333333;
    ( SH, http ) 0.3333333333333333, 0.3333333333333333, 0.3333333333333333;
    ( SH, http_443 ) 0.3333333333333333, 0.3333333333333333, 0.3333333333333333;
    ( SH, icmp ) 0.3333333333333333, 0.3333333333333333, 0.3333333333333333;
    ( SH, imap4 ) 0.3333333333333333, 0.3333333333333333, 0.3333333333333333;
    ( SH, iso_tsap ) 0.3333333333333333, 0.3333333333333333, 0.3333333333333333;
    ( SH, ldap ) 0.3333333333333333, 0.3333333333333333, 0.3333333333333333;
    ( SH, link ) 0.3333333333333333, 0.3333333333333333, 0.3333333333333333;
    ( SH, login ) 0.3333333333333333, 0.3333333333333333, 0.3333333333333333;
    ( SH, name ) 0.3333333333333333, 0.3333333333333333, 0.3333333333333333;
    ( SH, netbios_dgm ) 0.3333333333333333, 0.3333333333333333, 0.3333333333333333;
    ( SH, netstat ) 0.3333333333333333, 0.3333333333333333, 0.3333333333333333;
    ( SH, nnsp ) 0.0012845215157353883, 0.997430956968529, 0.0012845215157353883;
    ( SH, nntp ) 0.3333333333333333, 0.3333333333333333, 0.3333333333333333;
    ( SH, ntp_u ) 0.3333333333333333, 0.3333333333333333, 0.3333333333333333;
    ( SH, other ) 0.3333333333333333, 0.3333333333333333, 0.3333333333333333;
    ( SH, pm_dump ) 0.3333333333333333, 0.3333333333333333, 0.3333333333333333;
    ( SH, pop_2 ) 0.3333333333333333, 0.3333333333333333, 0.3333333333333333;
    ( SH, pop_3 ) 0.3333333333333333, 0.3333333333333333, 0.3333333333333333;
    ( SH, printer ) 0.3333333333333333, 0.3333333333333333, 0.3333333333333333;
    ( SH, private ) 1.6117853746595106e-05, 0.9999677642925069, 1.6117853746595106e-05;
    ( SH, remote_job ) 0.3333333333333333, 0.3333333333333333, 0.3333333333333333;
    ( SH, shell ) 0.3333333333333333, 0.3333333333333333, 0.3333333333333333;
    ( SH, smtp ) 0.3333333333333333, 0.3333333333333333, 0.3333333333333333;
    ( SH, sql_net ) 0.3333333333333333, 0.3333333333333333, 0.3333333333333333;
    ( SH, sunrpc ) 0.3333333333333333, 0.3333333333333333, 0.3333333333333333;
    ( SH, systat ) 0.3333333333333333, 0.3333333333333333, 0.3333333333333333;
    ( SH, telnet ) 0.3333333333333333, 0.3333333333333333, 0.3333333333333333;
    ( SH, tftp_u ) 0.3333333333333333, 0.3333333333333333, 0.3333333333333333;
    ( SH, tim_i ) 0.3333333333333333, 0.3333333333333333, 0.3333333333333333;
    ( SH, time ) 0.3333333333333333, 0.3333333333333333, 0.3333333333333333;
    ( SH, urp_i ) 0.3333333333333333, 0.3333333333333333, 0.3333333333333333;
    ( SH, uucp ) 0.0012845215157353883, 0.997430956968529, 0.0012845215157353883;

}
probability ( service | flag ) {
    ( OTH ) 0.0009250693802035157, 0.0009250693802035157, 0.0009250693802035157, 0.0009250693802035157, 0.0009250693802035157, 0.0009250693802035157, 0.0009250693802035157, 0.0009250693802035157, 0.0009250693802035157, 0.0009250693802035157, 0.0009250693802035157, 0.0009250693802035157, 0.0009250693802035157, 0.0009250693802035157, 0.0009250693802035157, 0.0009250693802035157, 0.0009250693802035157, 0.0009250693802035157, 0.0009250693802035157, 0.0009250693802035157, 0.0009250693802035157, 0.0009250693802035157, 0.0009250693802035157, 0.0009250693802035157, 0.0009250693802035157, 0.0009250693802035157, 0.0009250693802035157, 0.0009250693802035157, 0.0009250693802035157, 0.0009250693802035157, 0.0009250693802035157, 0.0009250693802035157, 0.0009250693802035157, 0.0009250693802035157, 0.9574468085106387, 0.0009250693802035157, 0.0009250693802035157, 0.0009250693802035157, 0.0009250693802035157, 0.0009250693802035157, 0.0009250693802035157, 0.0009250693802035157, 0.0009250693802035157, 0.0009250693802035157, 0.0009250693802035157, 0.0009250693802035157, 0.0009250693802035157;
    ( REJ ) 0.0009037907741805473, 1.7447698343253808e-06, 0.00045276777200743636, 0.00045276777200743636, 1.7447698343253808e-06, 1.7447698343253808e-06, 1.7447698343253808e-06, 1.7447698343253808e-06, 1.7447698343253808e-06, 1.7447698343253808e-06, 1.7447698343253808e-06, 1.7447698343253808e-06, 0.00045276777200743636, 0.00045276777200743636, 1.7447698343253808e-06, 0.011277319824162099, 0.00045276777200743636, 1.7447698343253808e-06, 0.02931823991108654, 1.7447698343253808e-06, 0.00045276777200743636, 0.00045276777200743636, 1.7447698343253808e-06, 0.00045276777200743636, 1.7447698343253808e-06, 0.00045276777200743636, 1.7447698343253808e-06, 0.00045276777200743636, 1.7447698343253808e-06, 0.6778893170360201, 1.7447698343253808e-06, 0.00045276777200743636, 0.02480800988935543, 1.7447698343253808e-06, 0.13395557641524827, 1.7447698343253808e-06, 1.7447698343253808e-06, 0.009473227815469654, 0.00045276777200743636, 0.06404701107841608, 0.0009037907741805473, 0.04149586096976053, 1.7447698343253808e-06, 1.7447698343253808e-06, 1.7447698343253808e-06, 1.7447698343253808e-06, 0.00045276777200743636;
    ( RSTO ) 0.0025860780307937615, 9.965618615775572e-06, 9.965618615775572e-06, 9.965618615775572e-06, 9.965618615775572e-06, 9.965618615775572e-06, 9.965618615775572e-06, 9.965618615775572e-06, 9.965618615775572e-06, 9.965618615775572e-06, 9.965618615775572e-06, 9.965618615775572e-06, 9.965618615775572e-06, 9.965618615775572e-06, 0.0025860780307937615, 0.0025860780307937615, 9.965618615775572e-06, 9.965618615775572e-06, 0.3529373660869998, 9.965618615775572e-06, 9.965618615775572e-06, 9.965618615775572e-06, 9.965618615775572e-06, 9.965618615775572e-06, 9.965618615775572e-06, 9.965618615775572e-06, 9.965618615775572e-06, 9.965618615775572e-06, 9.965618615775572e-06, 9.965618615775572e-06, 9.965618615775572e-06, 9.965618615775572e-06, 0.3555134784991778, 0.0025860780307937615, 9.965618615775572e-06, 9.965618615775572e-06, 9.965618615775572e-06, 0.0025860780307937615, 9.965618615775572e-06, 0.0025860780307937615, 9.965618615775572e-06, 0.27307788130948224, 9.965618615775572e-06, 9.965618615775572e-06, 0.0025860780307937615, 9.965618615775572e-06, 9.965618615775572e-06;
    ( RSTOS0 ) 0.0017730496453900717, 0.0017730496453900717, 0.0017730496453900717, 0.0017730496453900717, 0.0017730496453900717, 0.0017730496453900717, 0.0017730496453900717, 0.0017730496453900717, 0.0017730496453900717, 0.0017730496453900717, 0.0017730496453900717, 0.0017730496453900717, 0.0017730496453900717, 0.0017730496453900717, 0.0017730496453900717, 0.0017730496453900717, 0.0017730496453900717, 0.0017730496453900717, 0.0017730496453900717, 0.0017730496453900717, 0.0017730496453900717, 0.0017730496453900717, 0.0017730496453900717, 0.0017730496453900717, 0.0017730496453900717, 0.0017730496453900717, 0.0017730496453900717, 0.0017730496453900717, 0.0017730496453900717, 0.46010638297872364, 0.0017730496453900717, 0.0017730496453900717, 0.0017730496453900717, 0.0017730496453900717, 0.46010638297872364, 0.0017730496453900717, 0.0017730496453900717, 0.0017730496453900717, 0.0017730496453900717, 0.0017730496453900717, 0.0017730496453900717, 0.0017730496453900717, 0.0017730496453900717, 0.0017730496453900717, 0.0017730496453900717, 0.0017730496453900717, 0.0017730496453900717;
    ( RSTR ) 0.03665734500045104, 1.2887096150624377e-05, 1.2887096150624377e-05, 1.2887096150624377e-05, 1.2887096150624377e-05, 0.003344201451087026, 1.2887096150624377e-05, 1.2887096150624377e-05, 0.003344201451087026, 1.2887096150624377e-05, 1.2887096150624377e-05, 1.2887096150624377e-05, 0.006675515806023427, 1.2887096150624377e-05, 1.2887096150624377e-05, 0.003344201451087026, 1.2887096150624377e-05, 1.2887096150624377e-05, 1.2887096150624377e-05, 0.003344201451087026, 1.2887096150624377e-05, 0.006675515806023427, 1.2887096150624377e-05, 1.2887096150624377e-05, 0.003344201451087026, 1.2887096150624377e-05, 0.003344201451087026, 1.2887096150624377e-05, 1.2887096150624377e-05, 0.27318066420093556, 1.2887096150624377e-05, 1.2887096150624377e-05, 1.2887096150624377e-05, 1.2887096150624377e-05, 0.6529505006636853, 0.003344201451087026, 1.2887096150624377e-05, 1.2887096150624377e-05, 1.2887096150624377e-05, 1.2887096150624377e-05, 1.2887096150624377e-05, 1.2887096150624377e-05, 1.2887096150624377e-05, 1.2887096150624377e-05, 1.2887096150624377e-05, 1.2887096150624377e-05, 1.2887096150624377e-05;
    ( S0 ) 1.3149935565315727e-05, 1.3149935565315727e-05, 1.3149935565315727e-05, 1.3149935565315727e-05, 1.3149935565315727e-05, 1.3149935565315727e-05, 1.3149935565315727e-05, 1.3149935565315727e-05, 1.3149935565315727e-05, 1.3149935565315727e-05, 1.3149935565315727e-05, 1.3149935565315727e-05, 1.3149935565315727e-05, 1.3149935565315727e-05, 1.3149935565315727e-05, 1.3149935565315727e-05, 1.3149935565315727e-05, 1.3149935565315727e-05, 0.22436420061541695, 1.3149935565315727e-05, 1.3149935565315727e-05, 1.3149935565315727e-05, 1.3149935565315727e-05, 1.3149935565315727e-05, 1.3149935565315727e-05, 1.3149935565315727e-05, 1.3149935565315727e-05, 1.3149935565315727e-05, 1.3149935565315727e-05, 0.3331404676117086, 1.3149935565315727e-05, 1.3149935565315727e-05, 0.2107671672408805, 1.3149935565315727e-05, 0.04760276674644293, 0.0034124082791994314, 1.3149935565315727e-05, 1.3149935565315727e-05, 1.3149935565315727e-05, 1.3149935565315727e-05, 1.3149935565315727e-05, 0.18017384214817345, 1.3149935565315727e-05, 1.3149935565315727e-05, 1.3149935565315727e-05, 1.3149935565315727e-05, 1.3149935565315727e-05;
    ( S1 ) 0.00018263172313030804, 0.09460323258149955, 0.00018263172313030804, 0.00018263172313030804, 0.00018263172313030804, 0.00018263172313030804, 0.00018263172313030804, 0.00018263172313030804, 0.00018263172313030804, 0.00018263172313030804, 0.00018263172313030804, 0.00018263172313030804, 0.00018263172313030804, 0.04739293215231494, 0.00018263172313030804, 0.6139165373025305, 0.00018263172313030804, 0.00018263172313030804, 0.00018263172313030804, 0.00018263172313030804, 0.00018263172313030804, 0.00018263172313030804, 0.00018263172313030804, 0.00018263172313030804, 0.00018263172313030804, 0.00018263172313030804, 0.00018263172313030804, 0.00018263172313030804, 0.00018263172313030804, 0.00018263172313030804, 0.00018263172313030804, 0.00018263172313030804, 0.00018263172313030804, 0.00018263172313030804, 0.04739293215231494, 0.00018263172313030804, 0.00018263172313030804, 0.00018263172313030804, 0.00018263172313030804, 0.00018263172313030804, 0.00018263172313030804, 0.1890238334398688, 0.00018263172313030804, 0.00018263172313030804, 0.00018263172313030804, 0.00018263172313030804, 0.00018263172313030804;
    ( S2 ) 0.0002727768685215489, 0.0002727768685215489, 0.0002727768685215489, 0.0002727768685215489, 0.0002727768685215489, 0.0002727768685215489, 0.0002727768685215489, 0.0002727768685215489, 0.0002727768685215489, 0.0002727768685215489, 0.0002727768685215489, 0.07078559738134195, 0.0002727768685215489, 0.0002727768685215489, 0.0002727768685215489, 0.6348881614839051, 0.0002727768685215489, 0.0002727768685215489, 0.0002727768685215489, 0.0002727768685215489, 0.0002727768685215489, 0.0002727768685215489, 0.0002727768685215489, 0.0002727768685215489, 0.0002727768685215489, 0.0002727768685215489, 0.0002727768685215489, 0.0002727768685215489, 0.0002727768685215489, 0.0002727768685215489, 0.0002727768685215489, 0.0002727768685215489, 0.0002727768685215489, 0.0002727768685215489, 0.07078559738134195, 0.0002727768685215489, 0.0002727768685215489, 0.2118112384069827, 0.0002727768685215489, 0.0002727768685215489, 0.0002727768685215489, 0.0002727768685215489, 0.0002727768685215489, 0.0002727768685215489, 0.0002727768685215489, 0.0002727768685215489, 0.0002727768685215489;
    ( S3 ) 0.0009250693802035161, 0.24005550416281243, 0.0009250693802035161, 0.0009250693802035161, 0.0009250693802035161, 0.0009250693802035161, 0.0009250693802035161, 0.0009250693802035161, 0.0009250693802035161, 0.0009250693802035161, 0.0009250693802035161, 0.0009250693802035161, 0.24005550416281243, 0.0009250693802035161, 0.0009250693802035161, 0.4791859389454213, 0.0009250693802035161, 0.0009250693802035161, 0.0009250693802035161, 0.0009250693802035161, 0.0009250693802035161, 0.0009250693802035161, 0.0009250693802035161, 0.0009250693802035161, 0.0009250693802035161, 0.0009250693802035161, 0.0009250693802035161, 0.0009250693802035161, 0.0009250693802035161, 0.0009250693802035161, 0.0009250693802035161, 0.0009250693802035161, 0.0009250693802035161, 0.0009250693802035161, 0.0009250693802035161, 0.0009250693802035161, 0.0009250693802035161, 0.0009250693802035161, 0.0009250693802035161, 0.0009250693802035161, 0.0009250693802035161, 0.0009250693802035161, 0.0009250693802035161, 0.0009250693802035161, 0.0009250693802035161, 0.0009250693802035161, 0.0009250693802035161;
    ( SF ) 0.00014656837465055399, 3.261972849365712e-05, 0.001432560238421247, 6.29724488294539e-08, 6.29724488294539e-08, 6.29724488294539e-08, 6.29724488294539e-08, 0.051439737523276546, 6.29724488294539e-08, 0.008904335750709197, 0.00293017101648332, 0.002897614260438492, 0.0019534683351384897, 0.0170272463838937, 6.29724488294539e-08, 0.6380962030730488, 6.29724488294539e-08, 3.261972849365712e-05, 0.000244238642785037, 6.29724488294539e-08, 6.29724488294539e-08, 6.29724488294539e-08, 3.261972849365712e-05, 6.29724488294539e-08, 6.29724488294539e-08, 6.29724488294539e-08, 6.29724488294539e-08, 1.634135047124329e-05, 0.0013023332142419364, 0.004509173684657462, 0.0002605170208074508, 6.29724488294539e-08, 0.00047213593509883066, 6.29724488294539e-08, 0.21205849347043385, 6.29724488294539e-08, 1.634135047124329e-05, 0.05183041859581448, 6.29724488294539e-08, 6.29724488294539e-08, 6.29724488294539e-08, 0.002897614260438492, 1.634135047124329e-05, 1.634135047124329e-05, 0.00045585755707641684, 0.0009604872757712458, 1.634135047124329e-05;
    ( SH ) 4.595377050687007e-05, 4.595377050687007e-05, 4.595377050687007e-05, 4.595377050687007e-05, 0.011925003446532785, 4.595377050687007e-05, 0.011925003446532785, 4.595377050687007e-05, 4.595377050687007e-05, 4.595377050687007e-05, 4.595377050687007e-05, 4.595377050687007e-05, 4.595377050687007e-05, 4.595377050687007e-05, 4.595377050687007e-05, 4.595377050687007e-05, 4.595377050687007e-05, 4.595377050687007e-05, 4.595377050687007e-05, 4.595377050687007e-05, 4.595377050687007e-05, 4.595377050687007e-05, 4.595377050687007e-05, 4.595377050687007e-05, 4.595377050687007e-05, 4.595377050687007e-05, 0.011925003446532785, 4.595377050687007e-05, 4.595377050687007e-05, 4.595377050687007e-05, 4.595377050687007e-05, 4.595377050687007e-05, 4.595377050687007e-05, 4.595377050687007e-05, 0.95036992785258, 4.595377050687007e-05, 4.595377050687007e-05, 4.595377050687007e-05, 4.595377050687007e-05, 4.595377050687007e-05, 4.595377050687007e-05, 4.595377050687007e-05, 4.595377050687007e-05, 4.595377050687007e-05, 4.595377050687007e-05, 4.595377050687007e-05, 0.011925003446532785;

}
